"const","linear","walk"
-0.0184466399510452,-0.0250203353577565,0.0122592549766101
-0.0109926499427653,0.0383454774294721,0.0194400867685997
0.0494221984847233,-0.0164857137503728,-0.0943726425901965
-0.0251930752826403,0.0123999471274523,0.0226478631503565
-0.00375657345673341,-0.0211941841166986,0.0202730992338919
-0.0228197532151061,-0.0445013154807213,-0.0111828564651633
-0.0419462121587554,0.00829291227297446,0.0443535712919576
0.0165333159666455,-0.0463556542071473,-0.0196889383471963
0.0184529575999117,-0.00641706327988048,0.03654121397556
-0.00948580500870855,0.00805403312496289,-0.0385004751187356
-0.0168664354246794,-0.0578641473659264,0.031724461542914
-0.0130254550983873,0.0382495185019247,0.00720354823393721
-0.0174458962577141,0.0307564353163399,-0.0234364509639226
-0.0471781317857906,-0.0579312522273926,0.0428592243859385
-0.00649855104981787,0.0502713452898428,0.00501720866884059
0.0197043240489335,0.0123690918093896,0.0671735389532112
0.0358364630503906,0.0196636930804314,-0.0515089398959787
0.0435407353908332,0.0360654669022297,-0.0428806847393192
0.0371631130827174,-0.0962867067097677,-0.0122799764682119
0.0460269786400951,-0.0340352371436451,-0.0237007748834495
0.0965357723196382,-0.0638848088762017,-0.021608937271635
-0.0764049465878803,-0.0172092422636437,-0.000490672310208058
-0.0228571674510648,0.00390074227333251,0.0149071704413057
-0.0261733134606642,0.0218302463667112,-0.00279530121572327
-0.0802469955408809,-0.0211552831841655,-0.00713730790339995
-0.00480859910049636,-0.0332457751921772,-0.0801268097816821
0.0160232571192439,0.0386437063918016,0.0207989479598037
-0.0137404899768727,-0.0170320410276291,-0.00814518901307637
0.00241394026209118,-0.00157001989771344,-0.028616513356526
-0.0218409555858085,-0.0011815533247479,0.0328158104619383
-0.0175047243544139,-0.036885210082999,-0.0414164143589735
0.0267116945175785,-0.00895753545048894,0.032259180189995
-0.0399129734731831,0.00182506388687208,-0.0165041996442598
0.00143651620587087,-0.0135346801139826,-0.00904124878621593
0.0502889296807719,0.088023288236344,-0.0254912154188929
-0.0143075392349155,0.0159154547827431,-0.0475274076752847
-0.0364230002230554,0.00687356501068637,-0.00865188102486553
0.000662520768575647,-0.00533670945513599,0.00660409304447673
-0.00146259024502149,-0.0918410572659331,0.0320000920711864
-0.00264011557027505,0.0323065670330777,0.00923633467635904
-0.0174643125049369,-0.0494629294137742,-0.020752299690656
0.0308964665314161,0.0178914119560056,0.00934938840881705
-0.00766191368898517,-0.057478970532053,0.0136102784309017
-0.00868639603771759,0.00541093933731041,0.0118041538047035
-0.0922194232154053,6.15873159601765e-05,0.0243329433867074
0.0554497599957211,-0.00446394951366369,-0.0161749232889769
-0.01844720514273,-0.00838222155393076,0.00107357257906937
-0.00726073616664352,-0.00764201195299852,0.0207010330272936
0.012496077796526,0.0641638260765152,0.017368098794956
0.018369966728215,0.000626928634521517,-0.0702955553790534
0.00229365867710818,0.00224899843447446,0.0542531282767538
-0.00969558174532481,0.0235914676460148,0.0202368038355799
-0.0210866875830589,-0.0269295196789319,0.0257044033542894
-0.00163596171984448,0.0516558440876929,-0.0831291429086192
-0.0611975239865662,-0.00639639559172563,0.0318941558136512
-0.0483923909509721,-0.0253921841943779,0.0317513223369068
-0.0513285924982267,0.018447974198327,-0.0055401276662751
0.000295880415575267,0.00483888082974793,0.0131054575210106
0.056190254279063,-0.0213672493882585,0.0807829022690262
0.0421477530064995,-0.0796778181185755,0.00468482390168334
-0.0293871222122669,-0.025829829193233,-0.00307903825445843
0.0210185183005886,-0.0354122539050759,0.0372395169207989
-0.00806275283426516,-0.00546989266811504,0.0219140991741957
0.00641282578898184,0.034593175937237,-0.059865307827098
0.01797999941304,0.0452708513696368,0.0363341616622338
-0.0165473157852122,-0.0853556788866058,-0.00162861312495172
-0.0183199699008613,0.0273160508936144,0.00123992240571383
0.0320029797540207,0.0170107458826454,0.0128604078984322
-0.0232721338194586,0.0198117211294715,-0.0292831954845718
0.00242179923905381,0.0154417193230005,0.0723220781219084
0.020591152462216,0.0442007304168276,-0.0949725153202475
-0.0483558130429084,0.00690379602061233,-0.0247176119808707
0.0227609168245637,-0.0298909751888558,0.018370893188068
-0.00310167622340196,0.0175832199996742,-0.0667299475836386
-0.0525374116277574,-0.0438226618772166,-0.0154437887304092
-0.0407025371706661,0.0377205533005918,-0.000592317451655777
0.00865680036847948,0.059523303746316,0.0149302179055379
0.0300919510798753,0.0162645100575665,-0.0181426528546403
-0.0154647352900936,0.0381848326607593,0.0578853306862608
0.0174209298050563,-0.0461063726958688,-0.0454817879484596
0.0262703322330874,-0.022239927848369,0.00934521558444135
-0.0765374372291074,-0.0601404317060935,0.0150968881342741
0.0164852576994033,0.0130080409282278,0.0358008023273532
0.0298274420106641,0.0065616826336059,3.79032101812671e-05
-0.00972104876305502,0.0514664543181182,0.0102471370917417
-0.0860248731851929,-0.00844081100358812,0.0605529264909724
0.0264932527150161,0.000134739327738553,0.0166424130665541
0.0012866271676828,0.0141474789845299,0.0450058751929996
0.011391224525283,-0.0209050669386105,0.0614148464556143
0.0251630590040316,-0.0288346281381144,0.0168513484960512
0.00203947062234228,0.0242915501114893,0.00949498268376219
0.0309156155315792,0.0224428756401887,0.0303109889058078
-0.0204049512498508,-0.00159574067655677,-0.0208504884144795
-0.00319253985628488,-0.0160969814643239,0.00130600063792013
-0.00805966650782985,0.0579339786418112,-0.0102730610236182
0.0333872254092736,0.00569165392850057,-0.0177045206440146
-0.0128587111287747,0.0051190201960245,0.0514670858469634
-0.0205750112754928,-0.0224820608242884,0.0267355051904511
-0.0200972613905648,0.0242347014113506,-0.0710494330877459
0.0193896948118046,0.0320421601654874,0.0199860216637022
0.0265761958867806,0.0499442177404321,-0.056844057781376
0.0317892810608855,-0.0779572076753466,-0.0738409406402293
0.0855341537537172,-0.00177019561680635,-0.0306325389242051
0.0356089313918039,-0.0276606511522139,0.0296853028286395
0.0277361223343827,0.0378348429686588,-0.00402270446036046
0.00182003196417568,-0.00737445311304225,0.00288882110517674
-0.0169109324678616,0.0361588412085768,-0.0244727984990746
0.0169510746509851,-0.0214962056045023,-0.0634652542952389
-0.0211828645171939,0.00731087099771943,-0.0315758395029501
-0.0116910958370305,-0.0178570329930153,-0.0216964334268276
0.00518613012741041,-0.0255412355891262,0.0377416104965042
-0.0159475601338465,0.00323446719835957,-0.00937125166191177
0.0298291948876074,-0.0559280379847181,0.0747841977370026
-0.0300704521855036,0.04751253742358,0.0365133013579243
0.0205637035588494,-0.00140732309608504,0.00181106090141828
-0.025773188193652,0.0848382415793054,-0.0372454667401937
0.0114657601367606,-0.0202864049946103,-0.0150102338722924
-0.0206210132658705,-0.0516142263298963,0.0649860881752456
-0.0135504855102531,-0.00723500861264781,0.0278698417462352
0.0339694776885876,-0.0174016170117274,-0.0311597653765913
0.0330964862841064,0.0424095777051301,-0.000876562758235999
0.0240946034767591,0.030953751069147,-0.0222459026738152
0.0170087433522367,-0.0374894740090419,0.0120810219629756
-0.0259970577170353,-0.0280870012687261,0.015094931643893
-0.013200094523791,0.0618570345208268,-0.0245661662184085
0.0675580474912426,0.0886966118918289,0.0484827836585726
0.0253218117551239,0.0506102325992435,0.0450634334874029
0.053929074614757,-0.045523100749824,0.0797033371140855
0.0169322679949611,-0.0529363277390729,0.00945890736621513
0.00584712292868511,-0.0141607588358268,0.0239943776460324
0.000323004712316055,0.0450662700080321,0.0052563458396804
0.0254074245764587,-0.0124547156030967,0.00666183570549961
-0.0151044825280366,-0.0282298790157046,-0.0145842835703646
-0.0202110491479135,-0.0478553600969912,-0.0132365010378422
0.0159564028315008,0.0109252415723492,0.00020532599522749
0.0471258008490181,-0.00106960276898405,0.0258194686957279
-0.0173773893826092,0.0799998066229641,0.0107712187584958
-0.0189514576361798,-0.00811841476697805,-0.0512220706506572
-0.0184338935327509,-0.0450361395417211,-0.0140854299421813
-0.0085237479918502,-0.0511335775036396,-0.0158736273827824
-0.0028262588538247,-0.0122709731030319,0.00316425677388166
-0.0276366538469876,-0.00485162044830506,-0.0605950830732214
0.0891131533377024,0.034872664840563,-0.0292149050797943
-0.00401920194502703,-0.00561775956884303,0.0332264962746764
-0.00183392779507041,0.00712536800365715,-0.0795497233340316
-0.0136640662781761,-0.0365973399809832,0.0192800527823047
0.00116436106293212,-0.0171408907573526,0.0387280526886753
-0.0075556778748942,-0.0251186069474707,0.0103357160788448
-0.00241015265533099,-0.00433922889351868,0.029642059472965
-0.0331474963344027,-0.0118370234503524,0.0155017091957862
-0.00100016682903237,0.026479432478795,-0.00324464807735009
0.00959835103871065,-0.0348516645246832,0.0298064992580533
-0.0230824686941695,-0.0415137250245621,0.0164874360708546
-0.0137824423397708,0.0816744708660838,-0.00418346855808061
-0.0168928895584477,0.0149942335931416,0.0630988119713768
-0.00114509650615996,-0.106378817829496,0.0163996208222955
-0.0219549449405758,-0.0202746581822738,-0.0218315108872862
-0.00309236254711569,0.0133709015243619,-0.0368330306689802
0.000181419713900399,0.0377074086456845,0.0264493145548191
0.0389982109002488,-0.025695264419371,-0.0228278114664774
-0.0134339103029607,0.0313078964008126,0.0355610965335396
0.0093034803926394,0.0159099152597721,-0.0356140132058724
0.0570162621625682,0.0311558565558719,0.0357273501653564
-0.0394190893339633,0.000554265203391413,0.00319344456128828
0.0182429897653152,-0.00403118902740618,0.000114831520683256
-0.0343524107367021,-0.0180002236627732,0.0682728389344029
-0.0251779366795027,-0.00822400958844272,0.0126622625562862
0.0323434314508249,-0.00885612115387341,-0.0121454803693052
-0.0381468351931501,-0.0102120918164156,-0.039099491698961
0.0345034781019566,0.016814446767505,0.0126316280014297
-0.00344638725884483,-0.0263284419441541,0.0261956078558206
-0.0114111264937381,-0.020867597880953,-0.0289198925823536
-0.051325234349574,-0.0209648908397143,-0.0831744937640739
-0.017217691239558,0.0122284548027064,0.011217690693081
0.0261998248411119,0.0768759224805421,0.0602010215505822
0.0557508354197322,-0.0291854858490107,0.000868517106949288
-0.000169351296303133,0.043738380043205,-0.0102753919140973
0.00393168805780168,0.00782897719604078,0.0195320611256508
-0.061789491816264,-0.0408275444270068,0.00611868748767055
-0.0117445250175675,-0.0611127191109467,0.0087606892788476
-0.000835609123984726,-0.00553236956451508,-0.00596052382345263
0.00479376666145714,0.0687214369349094,-0.0223999489421848
-0.0295164418783789,-0.0375585479500941,-0.00287688248218909
-0.0497837358844718,-0.0142189360903596,0.0320449239898996
-0.0121820671204619,-0.0164966507372074,-0.0532377122060529
0.0433241364465502,0.0374635892466175,0.00523322810064253
-0.0117429744711386,-0.0119295493060933,-0.015822623302867
-0.0162265566120899,0.0125722001377245,-0.0809072969516598
0.0879715515496814,-0.038517839760012,0.00483501175137768
-0.000320634573924054,0.0367908845244108,-0.0466658312623802
-0.0267882349995739,0.0306377405898662,0.0246439865534412
-0.0459751883499201,-0.00264918931627522,-0.0365353075655047
-0.058613164950224,0.0339470855011405,0.0155535074898423
-0.035882259699307,-0.00538704659796874,0.00901119557320784
-0.0772186522082298,0.0123732435416021,-0.122645555523974
-0.0255747149140956,-0.00895557385967299,-0.088666706067097
0.00650464932193628,-0.0126577184722538,0.0256547390393476
0.0479334984212324,-0.0155396757687429,-0.0198340700670325
-0.00451940589962885,-0.0874833616156249,0.0173989641977099
-0.0159432478168093,-0.0208762248475286,0.00221940246286823
0.00460174853345274,0.00119853563086791,-0.032521589702773
-0.0409822307007135,-0.0307134339178752,0.0200694883079391
0.00938031654665861,0.0221898350037803,0.0108867973477414
-0.0453886871347168,-0.00236257630606629,0.0139411835262949
-0.00263078683033546,0.0161855123148116,0.00698236580937608
-0.0390043381688847,-0.0778148133484865,-0.00344517906494413
-0.0220950726817494,0.000345272248722495,0.0132030508469621
0.0414812449451984,0.0228131567674894,-0.0411252597413297
-0.0376671204667929,0.022658716308473,0.0583506393142854
0.00269139697162613,0.0669142009371203,0.0108161491176145
-0.0528852232357228,0.033344708077462,0.0161745295429989
0.036219896291162,-0.0489790152253823,-0.0182443382067817
-0.00618600274842251,-0.0150637059272707,0.0122534383941137
0.00395897367326045,0.0492131715154608,0.0140247122287582
0.0472598284070197,0.000537598494678715,-0.0242912085069249
-0.0160990682132329,0.0553701720530116,0.0152498874992874
-0.00662158477625679,0.0150317974427995,-0.0220592687009304
0.00401527775949084,-0.0913811075367595,-0.00369198336231369
-0.0317242230507792,0.0280682397020842,0.0178318574434386
-0.00440418075640702,0.0383313796969633,-0.0421953310515488
0.0275083704994178,-0.0266793809035678,-0.00632093076249551
0.0349276325300614,0.000738648214723137,-0.0282416427841992
-0.0688096446318897,-0.019372398558654,0.0123455765881595
0.0349352503684844,0.0106119696552896,-0.0326316026521563
-0.028143926159136,0.0159158643420827,0.0190913984806944
0.0736372020117737,0.0184112960045013,-0.0822256627895159
-0.0287417468521992,0.0599971205543441,0.000668217939933352
-0.00293367566403691,-0.0282063548743706,0.0318950587562288
-0.0203855422273959,0.032438892350413,-0.025832081535497
0.0220505842019882,0.01717566126763,-0.000766090746603498
0.00292598648227682,-0.0041462545705651,-0.0478885357285244
-0.0178331387965954,0.00215240913218517,0.00872769717606886
0.0341884914066092,-0.0400131987274874,0.00184266970665414
0.0335584675073467,-0.0102565075427039,-0.0948891966841485
-0.0190703247383243,-0.0187048936992026,-0.01119533326913
-0.00978628222212433,0.0459509044506964,-0.00543059961198833
-0.0358503627804341,-0.0162654140968008,-0.0169902906577873
0.00315678985488499,0.000334953886330758,-0.0108245233537004
-0.0109427875649873,0.00658236018216174,-0.0901956745415702
0.0592757003812466,-0.0257424717934239,0.00591488067847024
0.000638934377824474,-0.0153834990000048,0.0588951073735938
0.0727101763779701,0.00600435071310079,0.00724013147593627
-0.012806386041566,0.040029932879059,0.00699309459537929
-0.0542870378920877,0.0499687125911297,0.0142410135499353
0.00463248379660217,-0.0475871081509534,-0.0793755620835572
0.00240338165500546,0.0335260005672776,0.0795823531120401
0.00334771334799266,0.00245895368702453,-0.000779718240916595
0.0569255544607823,-0.0268346466484658,0.0295597392863676
0.0468117133078233,-0.00848785031104371,-0.0434044128799653
0.027224518552226,-0.0153298269344778,-0.009373192892426
-0.011620359659386,0.0526296657046112,-0.00548847969705485
0.00320640964200331,-0.0203039409551466,-0.0297790639011825
0.06478890742942,-0.00920830372276593,0.0116855217461226
0.0261788738681884,-0.0278983864232049,0.0209166022068045
0.0787193748280782,-0.0322737909703872,-0.000378968398329571
-6.18530786206106e-05,-0.0392754016508541,0.0254583863132982
0.0624198643190207,0.023532203488637,-0.0866582281474303
-0.0475813376682432,0.0649749085664709,-0.0330850129088203
0.0545472656208117,-0.0261553227399843,0.0283455378848009
-0.00507583407487677,-0.0544157379450719,0.02596739444508
-0.00833860590665603,0.036037223082352,0.030360423735646
0.0389829104787086,-0.0119538761749005,0.0904464352963416
-0.00865595713980527,0.0121774131359519,-0.0718321993839907
0.00269973586497152,0.0188125223771142,-0.018483441431642
0.017533884583248,-0.0427989032531325,0.000266934052842505
0.00429540518795868,0.0178986241995138,0.0135605265319849
0.00991360777739558,-0.00217964959402678,0.0435474888572387
0.0178931778638052,-0.0359085721173769,-0.0375970097348516
-0.0453270601171366,0.00152579505398354,0.017445843684027
0.0119036032730095,0.0321786865225849,0.0452906614468402
0.0397021851858699,0.0312092402751453,-0.00875671756482865
0.0219114106990664,0.047894042061875,-0.00876809966870329
0.0151373164623867,-0.0121172022954675,-0.0264207749582024
-0.0557810474088581,0.0283127018282948,-0.0299971812887208
-0.011628772103196,0.00692285955989425,-0.0093746130831488
-0.0168682630813592,0.0096320917516674,-0.00441622993759153
-0.0682539129537211,0.013950254986324,0.00151130161792094
0.0163729981371518,-0.0111112117931268,0.0171942316543933
0.0181102552027995,0.0422160566114104,-0.0556573361786963
0.00185489562079255,0.0263738378911571,-0.0724428087811328
-0.0714336767048869,0.0241119826682348,-0.000553999434088404
0.0720858456637831,-0.00381432082570354,0.0394650783010426
0.0108757421450689,0.0487082809457638,-0.0233500749211169
-0.00723645171834782,0.00862412046262406,-0.0226653386805332
0.0508918749778886,0.0963027741930702,0.0257157812724986
-0.00511602352842222,0.0120384096476432,0.00845380542543461
0.0142438845380907,0.0123539548499055,-0.0289579742960816
0.0512259099836621,0.0125852948891778,-0.00826375077299601
-0.0365624881004439,-0.0178665908594063,0.0208543881718211
0.0235405060882493,0.0296021021394163,0.0304729949605124
0.0250303671599631,-0.00340529910724903,0.00425714829100465
-0.0252161646424671,0.00845350473114659,0.000713703737669213
0.0161235367978254,-0.0372006894934469,0.0171028710591151
0.033795220250809,-0.0142149004216172,0.00112206753818189
0.0414104237985873,0.0194608274883926,0.0736413961143778
-0.0167835343967662,-0.00458486933147587,0.0366860186290646
0.0125452323772215,0.0550335170014793,-0.0947702515749074
-0.0259897923784251,-0.0184206402100787,-0.0809295041252515
0.0593359430315722,-0.0149580128174626,0.0461915515386939
-0.0170991309556717,-0.0136668209147207,0.0480512784858435
-0.000246030002421072,0.013991072028527,0.00658570871030556
-0.0547810597811171,-0.000470092227999208,-0.0156737824133626
-0.0620102263939691,-0.0321228637098792,-0.0346107385771137
-0.0607233000773724,-0.0025080229401172,-0.00736610253140979
0.0184188357772027,-0.00932839390355353,-0.00853936554324064
0.0359493391261921,0.0448099821673397,0.0381139021352966
-0.106328913267638,-0.0542678541630035,-0.0267172196507337
0.0110659053609847,0.017010583224381,0.0119002110592664
-0.0183147351408167,-0.0330895995234305,-0.0316264058747748
-0.03750187366598,-0.0602327120527574,0.0422104416448918
-0.0333294146849931,-0.0507008233451398,0.0545139747065696
-0.0146408409230598,-0.0410432744648913,0.0199804170022274
-0.00772967797808202,-0.000809030543303946,-0.0147416928203132
0.0139964580875267,0.0204985281036711,-0.00885374950153472
-0.0922804903334313,-0.00588094955711191,-0.0233436764936326
-0.0482908772111039,0.00909056425860388,0.0242380064271739
0.000152066204376806,0.0338928859697456,-0.0983121108760407
0.0109620218861896,-0.0434348168029318,0.00917033614869356
-0.00757091152869277,-0.0297373983847461,0.00181503627977875
-0.0222936741339962,0.00430279724414162,0.00130745885042405
0.0439434772083016,-0.0721151978511497,0.00350568211464408
0.0124049786754755,0.0422968417786082,0.0351150118279732
0.0118641485306322,0.0360869607240989,0.00310793617197147
0.00492844672193582,-0.0324331505399689,-0.00996288073292517
-0.00577643717736298,0.0240327475277761,-0.0188581973621422
-0.00334309168853275,0.000650079921022173,-0.0137921944623245
0.00210277244265583,0.0682723155046254,-0.00669373194331957
-0.0712343058600825,0.0281427906871334,0.0421393926207221
0.0275930110827702,-0.00356005274656701,0.0169057136958283
-0.0965756842025465,-0.00290635858216122,0.0140073921119473
-0.000785151115184957,0.00611879011521329,-0.0145877949194751
-0.0384704616360851,0.0167696828582123,0.0451411913821717
-0.0194700538921121,0.0671695278947863,0.0403439861895398
0.0460046809619004,-0.00381423391253068,-0.00419449140542058
-0.00685603235707199,0.00143465309575086,0.0101122267731049
-0.0144717363400403,-0.0115774268126887,0.0189615642159465
0.0545118790525089,-0.0019722979909419,0.00870580877156157
-0.0508952283956727,-0.0163678211136182,-0.0627845323387218
-0.0443667763771872,-0.00662673614166637,0.00137695001815991
0.00169304602966851,-0.0274718022557365,0.00824275895789378
-0.043995882945216,-0.0347967742172201,-0.00777151888294513
0.0167324153994166,-0.0167667180854247,0.0253111981051746
-0.00159995584053887,0.0541692382880775,-0.0162284074325082
0.0247607173096831,0.0157213018844171,-0.0163023246106652
-0.0476717332480876,0.00393853754949092,-0.014103111624018
-0.0239324089581049,-0.0361187829310884,0.00298384460936832
0.0110856104070765,-0.0135078079282426,0.0223822380938531
0.0200678060057246,-0.0900903691098157,-0.0461697095631177
0.00751563543998396,0.0253443735107864,-0.0432646949797788
-0.00783602408854045,0.0498846516021792,-0.024137032230833
-0.00145510966057472,-0.0121511400382492,-0.0333204803117172
-0.0256201425013365,-0.0026684405562456,0.0330975527385496
-5.3507578985923e-05,-0.0280374567901395,0.0381668003097248
0.0495437753804236,-0.0178070928317299,0.0196355156110455
0.00322033544797418,0.0690781142546574,0.0622005508743515
-0.0544086195242135,0.0740121187298986,0.0287786383537637
0.0324478441125463,0.0110522865653154,-0.0273768511277634
-0.00415415876618552,0.00911506238480819,0.0597008858302164
-0.0092304028889712,0.0171971717459501,0.0144837462788238
-0.000529489154887708,0.0214557100277292,0.0478008195242712
-0.00958851651745996,-0.0456851675083997,0.0487610266582513
0.0380620830214898,-0.0367590682198069,0.0142788347002429
0.0270443393024629,0.047012300389732,0.0709232317978888
0.0330334357926466,0.0185489966922973,-0.0588326706842844
0.0590903313283976,0.00301052284401232,0.0356867227541517
-0.0416405634569765,-0.000947208429627006,0.000895319202500744
-0.0338758029128492,-0.0272187735743833,0.00329753650138365
0.0509671675585011,0.0002837551960434,-0.00309284778496077
0.0478486320818707,-0.0598002936230828,0.0625855755264086
0.0343146826316887,-0.0217245235476665,0.00415410440414699
-0.0126741093794567,0.0389501803570017,-0.040188815250026
-0.0307214307375324,0.0607121122027078,-0.0214740607700777
0.0760895983896041,0.00181669526879202,-0.000281764707848908
-0.0129552078604297,-0.0501525854983803,0.0279721715831221
-0.00484634341807577,-0.0171861235903659,0.00783078074566593
0.00600265217496909,0.0114873302200373,-0.0194063159583919
0.0770953177468456,-0.0396329423236966,0.067250271683544
0.00551896939846086,-0.0739071885284934,-0.0238564468639388
0.0146916571839228,0.0168525972829662,0.0160726087999264
0.00874516565437068,0.0618398717429042,0.0102106515631327
-0.04076751823214,0.0449211876437344,-0.0148159654361001
-0.0198572948974364,0.0212530427204216,-0.082023033467683
0.0117178896225795,-0.0178720495367519,-0.0486099440209782
0.0608513060615822,0.0110121037555539,0.0189310234975862
0.0383994291762538,0.0941989551643946,-0.000344517837908731
0.000898353719306355,-0.0393302636104815,0.0601906623458097
-0.00959615609383901,0.0161568916562448,0.0227966519732348
-0.00232713883295432,-0.0413678084521481,-0.0303079777711364
-0.0773989270165355,-0.071857589330084,-0.0195810519447545
0.0234036790726281,0.0314854399432901,-0.0488922819101697
0.0618921259132091,0.0302200402012827,-0.0155987734569294
-0.0190104271066835,0.00309791270908433,0.0121901881851726
-0.0089746450769943,-0.0312841348328224,0.0197260791122292
-0.0035137107280232,-0.00896170668134688,-0.0385480746681355
-0.0188018724780226,-0.0362963033391673,-0.00184067140033439
0.0203897830028139,0.0134172235267836,-0.0232488848029807
-0.0155483980290975,-0.0154591058459861,-0.006624153164026
-0.00805747098134435,-0.042897461344823,-0.0603970701498776
0.0266544444311902,-0.00745962928265154,-0.00291688188527696
-0.0481664543338591,0.0299633700179239,-0.000622157311126114
0.00423431988352618,-0.055696522317365,-0.0536726943542785
0.00126573777676608,0.0328173591219542,0.000454998504143989
-0.0500844903768096,-0.00440022587293404,0.0178389762618558
-0.0329704926106863,0.000279725867613455,0.00714960212644022
0.0317329288677623,-0.0252661172577826,0.00680146763083289
0.0257986616353852,-0.00810297493464532,0.0392088083588549
-0.0406727887864536,0.00899261774545751,0.0221142636519271
-0.0329059736311034,-0.0842862824502411,-0.0880669552397908
0.018451395165899,0.00220843906381575,0.000233849498881361
0.0788412860010041,-0.034958530669022,0.0716588661282085
-0.0291582934084983,-0.0752456044286059,0.00497684725276928
-0.00595535087261001,0.000905505071789714,-0.0311859172536494
0.0136877797220828,-0.0266255157315229,-0.0632544937186196
0.00696209090582889,-0.0434828861864224,0.0265049176711697
0.0328155126757534,-0.000409222084695661,-0.0495894415197864
0.000717408936089126,0.0187818290270157,-0.034025197433165
0.0271150002395826,0.0245575522954019,0.101308644161727
0.0109004773674769,-7.63090570461977e-05,0.0285986281108593
-0.0595382906682015,-0.0060814371642991,-0.00241528909169852
0.045880549593556,0.0315416866487929,0.0132363472010988
-0.0749517596511881,0.0452079084944056,0.00903799500004654
0.0201105336052469,0.0385555553338794,0.0143516406693207
0.0048627650033769,0.0102973126443206,0.0234263553088332
-0.0549697314146759,-0.00992342723963772,-0.00284766089410061
0.00402805018988417,-0.0405471877978175,0.00521791113561893
-0.0214551748245611,-0.00611852520348777,0.0146106823331647
0.0220155268274065,0.0019345016218392,0.00379932358215074
-0.0282830378518942,-0.000971564732389498,-0.0725477843614059
0.0323485903943472,-0.00303241913644214,0.053796854289157
0.0227114816078965,-0.00188561818841745,-0.00962620530649128
-0.0067449845801647,-0.0222788753469855,-0.0203445708838596
0.021461347098191,0.00750572023093882,0.0315779447911744
-0.0583550607201622,0.0228965235847352,0.00497552153207949
0.0114343157204193,-0.092351773859814,-0.0266773684073036
0.0128663574926284,-0.0200026108765932,-0.0595058144641784
-0.00195753355319539,-0.040776262332188,0.0345975176836592
0.00775693767242253,0.0646717796992096,-0.0422693513092797
0.0153224714041437,0.0171434401558292,-0.00831175890265312
0.0634731855382701,-0.0430191299545519,0.0325801270987767
0.0549294374810301,-0.0375870361667658,-0.0977098425112579
0.0313360668717849,-0.0655790651631535,-0.0222706221348641
0.0342088902035677,-0.0760887554438973,0.0361765895769106
0.0341210553701924,0.0213480246117651,0.0203100186078428
0.0142901675506679,-0.0037811417893483,0.0164609864243782
-0.0503880350054222,-0.000140563119835416,0.0642589284397097
0.0701708453749801,-0.0026281745685266,0.0328354157336321
0.0839271333572897,0.0115710773420691,-0.0442090461265097
-0.00978385061310705,-0.00329258914949671,0.00914347389120929
0.00257843158075288,-0.00403950478965553,0.00791165145672967
0.0337672559454142,0.0166568052206332,0.00551875251492679
0.00084849957514499,-0.00399014864682444,0.0462812874902335
0.00295037450971447,-0.0607593739706085,0.00172877587955267
0.0451159556565861,0.0329852593968328,-0.00278988368779662
-0.00272713245022971,0.032788978260475,-0.00293634119767039
-0.028012652744016,-0.0057868257210717,-0.0395796648162813
0.0176842531520853,0.032903029600464,-0.0142352768981369
-0.0304071052914125,-0.00427733890531745,0.0166012926818543
-0.025482892073554,-0.0324194269305113,-0.0173145841520109
-0.0247228270864471,-0.021006186141082,0.0258119820036856
0.00197501732216016,-0.0165041881707026,0.00822105516828375
-0.00508738069619734,-0.0110793391077918,0.0661946168504848
-0.00462420018401466,0.0560561514338954,-0.00861571496901822
0.00154056433493643,0.0157995108311594,-0.00164186143709208
-0.021121191094347,-0.0490922469354063,-0.0271285490598297
-0.0823289501989644,-0.0681886925101048,-0.0367344310951476
0.00373644822317164,0.0303151280510102,-0.00393776010501606
0.00395003236162114,0.0331234966259708,0.00241409843134988
-0.109651867946157,0.0203226805059863,0.00491687366101956
0.0298358903739968,0.0336191427402636,-0.0340632156897056
-0.0617019274980274,0.0814625867588344,0.0285338139846809
0.00954430630777015,0.0598495479994382,-0.0602075955377046
0.000667521023563378,-0.0171330507604499,0.0439507293706726
0.0406368298478176,0.00639437218819713,0.0590220409590995
0.029382077152406,-0.0293255127715371,0.00249404891199212
0.0362504126780803,-0.0220462179734037,-0.00823422525319595
-0.0176420749929263,0.0490042108345152,-0.0362124785732381
0.0392465619793078,-0.110016101365367,0.0327905948247164
0.0232556652281387,-0.022181749913507,-0.0044514145076604
0.00083091979116957,-0.00322919964098532,0.0612313835511975
0.00763577675542507,-0.00740711402531897,-0.0259722550775718
0.0349619661592552,-0.0272822785334079,0.0181345837616534
0.00680420120572223,-0.0155896157656817,0.0539319533230433
-0.0426248885665805,-0.0336004085182976,0.0208575802954651
-0.0131966792188825,0.0176726574606262,0.00890236914146125
0.00999279212054804,-0.0658592610430772,0.0501997444351028
-0.0472969402279083,-0.00162275464954759,-0.0355196940629172
-0.00310160018822651,-0.0389961262924219,0.0188395957485134
-0.00192807094706515,0.0336928113811251,-0.00283194384971938
-0.0177298976440386,-0.010742362426467,-0.0233511349436174
-0.00636142715091062,0.00435649160349516,0.0332135748402259
-0.0291776359160388,-0.0363819185516258,-0.020349441007654
0.0385830697575072,-0.0175689665350367,0.040166621693168
-0.026948149499858,0.0129539571381967,0.0111910526582878
-0.00869573268017304,-0.0100799143161438,0.0424913543364509
0.00671095895553397,0.0322443643491795,-0.0237559241382051
-0.019291770911909,-0.0947994832338666,0.0392438364156484
0.0265263832835349,0.0257377295513133,0.0297161787730635
-0.00189171456307194,0.0310904744119936,-0.0680329632841388
0.0530880369535426,-0.021788394587834,-0.122640399221376
0.0185052730037442,0.00227519551544737,-0.0153188549502555
0.00722124598393481,-0.0277524239149579,-0.0358393538073761
-0.0179414681257066,0.0332882248769101,0.0403073089992537
-0.0334416030987815,-0.0191714285836811,0.0770847824190375
0.00296943661967813,0.0269534758123448,0.0431851504970872
-0.0310260955409899,-0.0361240214871603,-0.0181896741359778
-0.0404332724781051,-0.0280415263164694,0.0164133740355374
-0.0550062194181395,0.0172785801319309,-0.0411791760712907
0.00308376753139294,0.00396910287945745,-0.0361309204435255
-0.0222033447344971,-0.0281494294731087,0.000327613808189131
-0.0278002613796446,0.0305890267488882,0.0368730527821792
0.0580066006700399,-0.0394220011126222,-0.0491614792807955
0.0371607024766839,0.0482940591743409,-0.00900479409674419
-0.0111995222655833,0.0946464704165983,0.00304842310087009
0.00576319154543725,-0.0280112573749682,-0.0593567713392279
0.0109240520813509,0.043886607710344,0.00513589585091705
-0.00209539417499471,-0.012916154170327,-0.104266546451006
0.000950621141682761,-0.00493632631395524,0.00358291079106671
0.0229894744609855,0.0218922296990237,-0.0235627848746693
0.00273098556033458,-0.0905658219230412,0.0513302284455341
0.00257380411357189,-0.0576643506652303,-0.0138764685802469
-0.100968929238936,0.0351367144331844,0.0452096467684158
0.00451929263165696,0.0687068853853637,-0.0373750254770555
0.0294603381504403,0.0327112392823613,-0.00272194103429091
0.0191857296868448,-0.0493572857379643,-0.0146822814967099
-0.0273316245380251,0.0660032976462177,0.0172547567221675
0.00516068620952549,-0.0215505856295461,-0.0125179056574189
0.0413383016042494,0.0597212645606034,-0.0385966679383506
0.0129044289297336,0.00154611595477505,0.0056136278733584
-0.0105831914340829,-0.0322436124791929,0.0914907040466628
0.0674807592988217,0.0320453125082191,-0.044210682005726
-0.0409019103216677,0.0203043183774281,-0.0492404598879606
-0.0206706492068154,-0.0131759877765844,0.0132004795240613
-0.0227360604810064,-0.041263440034579,0.0343110490453379
0.0060234579313202,0.060879764920492,-0.0092081669822951
-0.0195330421950686,-0.0521095304853779,-0.03142482591512
0.032946681054737,0.0210167483009374,0.0221951995558606
0.00563029586218733,0.020178170993177,0.0384859443855689
0.0315174095895702,0.00810567722882732,0.0143896262216618
-0.0512442467620797,-0.000396795438960429,-0.0161536526754313
-0.00102009562340022,0.00537456401125957,0.021974798128389
0.00588195924179108,-0.0173601764597595,-0.0140036059295141
0.00477856477679772,-0.0151747530461671,0.0369682607917011
0.043254409691585,0.0310472079131983,0.0385274531958129
-0.0101697162189256,-0.0195286252467107,-0.0149285861438251
-0.00767562063616467,-0.00990745660508163,-0.0305493371286016
0.038662321571041,-0.0164958486859937,-0.000490116044727179
-0.0520281776774898,-0.000574160049966799,-0.0165337028948079
0.0344434266625019,0.0359056512483065,-0.00713934235143909
0.0361879914706463,-0.0202074655875178,-0.0348717105012218
0.000825957122945087,-0.104796434414925,-0.0453583858442477
-0.0197120495482646,0.0251382239847776,0.0422166533287253
0.0139021739267198,0.0388632348459899,-0.0325183505497176
-0.0793329210267373,0.00570428269158711,0.0200376956570465
-0.0440726282675928,0.0158733231731323,0.0203929381118911
0.019224400006307,-0.0494210302015899,-0.0937000884452708
0.0127879278611615,-0.0744783891150149,-0.0462467333581601
-0.00346222068703816,0.00245861142972204,-0.0776916348023994
0.0510710211826018,0.026104191945941,-0.0131604101349728
0.0508702396284331,-0.0033028939375418,0.0260349625871104
-0.000286387753943247,0.02324188629896,0.0318901388935128
0.00245863359659448,-0.0694768202937422,0.086976737397573
0.0318577924595327,0.025092569867213,-0.074576981494605
-0.00646030408370868,0.000104605964296206,0.00536998976954361
0.0290979541523023,0.0378517471637494,0.0368601133378597
0.0169856197286361,-0.0387892367497975,-0.0255669018307965
0.0205936184001639,0.00622935220630011,0.0185257739165145
0.022600002347229,0.0221237038719012,0.0123740103263833
-0.0256827627007743,0.00980282183312942,0.00281065813205229
-0.0149134364658563,0.0789617842037221,-0.0026874459555899
0.0125187320723077,-0.0206959214787257,-0.0618891401149916
-0.0119970313159653,0.0771520222543206,0.000561737407025198
-0.000765258966638316,-0.00223730536641517,-0.0158095645699002
-0.0135804242909712,-0.00877461707019705,-0.0334199267035749
-0.0219289273696914,0.0169595857237675,0.00204958492823051
-0.0666443112358568,-0.0652086156084891,0.071094981041785
-0.000477163748919169,0.0336920618388179,-0.0265716746511914
0.019417961573707,-0.00949591566838141,-0.0413596611716703
0.027916729800038,0.0363652832964942,0.010499702380554
-0.0557371789931674,-0.0184338948221433,-0.0223183242203122
0.0153372519914785,0.00984115693270168,-0.0734070585320412
0.0259809790345605,-0.0347077621103613,0.0135423734933484
0.0361669727351688,-0.0559012898622924,0.0473242672249673
0.0166489498914281,3.43934560347314e-05,-0.0541349691430604
0.00968393785362509,0.00273452192759149,-0.0315322339286043
0.000260836647035578,-0.0108227164875761,-0.0266467064615358
-0.019845638356383,-0.0403210427863354,0.0267942184120025
0.0555222296442381,0.0519291591457437,0.00420788912234643
-0.00193563070144087,-0.0352463379236199,-0.000142290256984114
-0.0727780297745345,0.0234858589684588,-0.00757009941013198
0.0168652639645497,0.0318650321634822,-0.0600088857114073
0.0465502525807019,0.0464014424831832,-0.0206943459680563
0.0062356987542731,-0.0466387171105533,0.0466697196175043
-0.0447367215376212,-0.010009390390024,-0.00931597711761145
-0.0280024311202117,-0.0116951270605994,-0.0156409166675421
0.0368165329353071,-0.04170878877279,-0.0259230742603602
-0.0500960874529654,-0.0512069064087645,0.0242877354203472
-0.0137782507442329,-0.0172250690841297,0.0113572639413418
0.0560187394066211,-0.0715987074180786,0.000369044964212917
-0.0210043385903465,-0.00524527824943699,-0.0388373796862639
0.0460127910028456,-0.0681629746272294,0.00920222355625444
0.029270135229401,-0.0316001665261433,-0.0344681103993196
0.0207292693492873,-0.0262844447655393,-0.0509817376350788
0.0283560534063881,-0.0530982022260388,-0.0335452036220951
-0.0426624390378725,-0.0028488550140654,0.0497523747247985
0.0569535514532896,-0.000289673290020609,-0.033116279578258
0.032684211820706,-0.037513766455945,0.0225898915408135
0.0674825828660777,0.0186288773263036,0.0249421114555562
-0.0406337935450362,-0.0159678312403672,0.0581488777397468
-0.0457601883932817,0.0051778807643923,-0.0619161666113248
-0.00169991087769628,0.0149701669825093,0.0213538643438592
0.0102726874259236,0.00165505431467922,0.00761804045379288
-0.0440301555807402,-0.00815422761386458,-0.108208716327263
-0.00896215175828563,-0.0147990092526888,0.0282769331924297
-0.0120465588250386,0.0615784373548737,0.0311788550386081
0.01790448897763,-0.0271594423802529,-0.0127706786196858
-0.0492488599748454,-0.0218759296011669,-0.0301300064978385
0.08887560269331,-0.0582044937381745,0.0043096921453592
0.00824849239069178,0.0483909397441282,0.0213397238563613
0.0178251794917228,0.0287408935106248,0.0273705675383332
-0.00199878186107848,-0.0376875988080891,0.0089833761258391
-0.00465516957831791,-0.0585238611635017,0.0347625486198651
0.0624857081144502,-0.0127291287815631,0.0826344128999991
-0.0236761245882227,-0.041248388620737,-0.054053153190608
0.0207254853086214,0.096022111051532,-0.0381013049124922
-0.0538612271031723,0.049182749548901,-0.0149592137007429
-0.0409596239022675,-0.0186118838158705,-0.0925133258555407
0.0107925840624674,-0.0495400220538822,-0.0280188690294744
-0.0169804064773148,-0.0109331782821975,0.0391385244906094
-0.0397953708593931,0.0053039075090241,-0.010034455822955
-0.0178049929457902,0.010717087401415,0.0316145830091202
0.000857621734841607,0.00205430081684654,-0.0538743544846917
0.00621124788761573,0.0193201491263138,0.00927747823582847
0.00320637815574121,-0.00747272703556756,0.0380109596158573
-0.0329849649922643,-0.0468242227299874,0.0128225233010785
0.018443727145931,-0.0622262435675027,-0.021169816480238
-0.0319548666499604,-0.000437416745268426,-0.00477164862414792
0.00574785795926481,0.0314469050847507,-0.00272266889285143
0.0242212114502572,0.0303929339126572,0.017811437256132
0.0452521145023443,-0.0567053491690495,0.0130333070237184
0.0122608347658151,-0.0161735950193839,-0.0636727687419438
0.0358280192773418,0.0126479145344873,0.00230853011071242
0.019706751822956,0.0720695128802888,-0.0376577198038657
-0.0533605112940184,-0.00707642752192947,-0.0153122663518395
0.0268030082246793,0.00332681647804389,-0.0425002165203257
-0.0771969698722148,-0.00799641958672226,0.0286441640352538
-0.00156857589303602,-0.00724481230456009,-0.006480255067703
0.00255609537245244,0.0140910562488095,0.00540885664502111
0.0556602285476104,0.0296551715202158,-0.0485499815954353
0.0107931720362613,0.0324955664591118,0.018294829832896
-0.0120760582379217,-0.0386643737119401,-0.0160697124044976
-0.00221048913257926,-0.0365666006936977,0.0472584883535458
-0.0435597246780924,-0.0643322965733565,-0.000584343921507025
0.01376266478434,-0.00236049061521748,0.000605363139313031
-0.0162694187284349,0.00353297513729267,0.0145174597886052
-0.0310434918033104,-0.0141687757286458,0.0198887611633961
0.0797061094807444,0.0406024354993063,-0.00796348260163893
0.0521734602380518,-0.0174934460831159,0.035539751975025
0.0138597735865407,-0.0118361491112916,-0.0258798042101628
0.0216615383824919,-0.0162577884383678,0.0165591489825144
-0.0866829345492741,-0.0283846605920489,1.65942600668378e-05
-0.0101872598327503,-0.0294867347316351,0.0136522437096618
-0.063520162111019,-0.00160422267130622,0.0160116764901985
0.0118096544056386,0.0149776644705775,-0.0426060254643252
-0.0286701837211036,-0.000162662682440168,-0.0214874995203925
0.0388025138835978,0.00674140133524531,-0.0103410530906
0.0461670113038162,-0.00654061677255957,-0.0188089555273163
-0.0341100482377082,-0.0240017443777606,0.0082139543919838
-0.0171732502844711,0.0574880978552403,-0.043048887251276
-0.0177025516077331,0.00789501261709294,-0.0305241335770039
-0.0343898421814642,0.018989347625648,-0.0162611453971928
0.0974542853761919,-0.0130571823600724,0.0541643312326496
-0.0414577750447207,-0.0628694902669276,0.00446584915118475
-0.0123067987481116,-0.00872798394474084,-0.012744902211238
0.0200534053938319,-0.0139684681189387,-0.00985491739129051
-0.0230849168078545,0.0270271435139827,-0.0105299875908952
0.0150459815791868,-0.0144239142671681,-0.00339563870314258
0.0337950041884582,-0.0798755780873905,0.0173893525190314
0.00526372017331733,0.0175388527845771,-0.0339110199059032
0.00527571190517107,0.00206137884903135,0.0457699465533089
-0.00512263088389042,0.0104585961744623,-0.0291158637321934
-0.00380481749669537,0.0425868939025816,0.00688595852647611
0.0355715649539839,0.00820037632015075,-0.0517844929581781
0.0129855755819275,0.0590455868657505,0.00584774185357017
0.0081004656241207,-0.0720040413641581,0.0429342984453124
-0.0560049962362696,-0.0179719423903567,-0.0462054245058763
-0.092976824763736,0.0149938631802383,-0.027819059699318
-0.00397802633457255,0.00342830298275909,0.0462367907422885
-0.0281493923919286,-0.0147712882805326,0.0165745926600986
-0.0415506407036911,0.0548025528061034,0.0316880376638441
-0.029202914879611,-0.0149481572975552,0.00916997309757639
0.0226839265888878,-0.0725547524344939,0.0434224289128015
0.00963289812775484,0.00795148199308121,-0.0681577731571666
0.0159829348340071,0.0218832879942387,-0.00705023858209736
0.0517802952023239,0.00148170247043737,-0.0165186809509111
0.00841582737417845,-0.00999864745836332,-0.0550260498433273
0.0283117187731306,0.0163625064963627,0.0327452383714111
-0.0317413721827688,0.0101959719883724,-0.00590006715531316
-0.0071336376570656,0.0319543075393287,0.0101898750512645
0.0184711058991848,-0.0350535826038051,0.0425162274998668
0.00344213977516261,-0.0122135097030419,-0.00602302341142402
0.00649017680333427,0.00908143146645424,-0.000659861241753767
-0.0187873756362431,0.00756409316050743,-0.0772778655981029
-0.0329533734462896,-0.00171067423542981,-0.0217013893101156
-0.085628243890485,0.00596348142311309,-0.0220742478691261
-0.00816019884722526,-0.083170837552672,-0.0166939554926133
0.0548540422945775,0.0470968025042724,-0.0369646272563243
0.0042834132664795,-0.00677118566759112,0.083617652126477
0.0124187246897867,-0.0176798486617061,-0.0464016204899645
0.0392320051456575,0.0434937839347739,-0.0723777210835869
-0.0162820985933476,-0.00726747576648157,-0.0958982044822251
0.00320435515509027,-0.0495498775125391,-0.0129490453762802
0.0281537187613184,0.0310665504900548,-0.00272904052220868
-0.0294093709504001,0.00948082668152017,-0.0364626772268726
-0.0136361276895563,-0.0383342879441294,-0.0130364857073872
-0.0493580612712631,-0.0358540900367678,0.00608862731264723
0.0299927364320094,-0.0108706069986784,0.0339232575461258
0.0531354567589106,0.011811648355777,-0.0100180794902039
0.0111699015957791,-0.0566647057576044,0.0336210205386512
0.0622593644252172,0.0133935565254709,0.0483516025995093
0.00782178493977337,-0.0673774978787924,0.0245145324872914
0.0231104168565117,-0.00820383090503829,-0.0108118076197061
0.0218180916878183,0.0696449304846691,-0.000944945285948962
0.0303960366266229,-0.0215389557906952,-0.055317703240734
-0.049463186904483,0.026896130271472,0.00741689401490042
-0.0120606227960404,-0.0100653240612139,0.0499085820746115
-0.0489001438201127,0.0452710428589543,-0.0368732453006514
0.030569160409216,0.0662435498781062,-0.0340369520334218
-0.00666872339600655,0.0196934408183213,-0.00801887866184059
0.00204796551932351,0.00198889559650584,-0.0728212952019369
-0.0398869085969924,-0.09682780333815,-0.00383133919592005
0.0217375315746967,0.02132883596887,-0.0245599692056974
-0.0461050581486287,-0.0366781967237232,-0.0222824773611115
0.00224483818739984,-0.0313226892535284,-0.001772364555921
-0.02058047202684,0.021253080869529,-0.00213376428918521
-0.0176027148968242,-0.0312698086069233,-0.00931464335600364
0.0946710564870114,-0.0054680900933175,-0.00707844550959648
0.00594373031113543,-0.0514212035838952,0.0137020823699365
0.0154903599115002,-0.00315224132259739,-0.00890005271535139
0.0495486584783535,-0.0170508995768767,-0.0118851642021028
0.0550967765182375,-0.0168707966498107,-0.0128877595329815
-0.0320779920912033,0.000170523153033855,0.0587272038250767
0.0277325916129211,-5.78109429815871e-05,0.0417354602339736
-0.0360478248831232,0.0266398030624628,0.00914113651892379
0.0162707178938599,-0.0297493713466727,0.00717191360187236
-0.0608029299641764,0.0577629995858775,0.00151859479381358
0.0328119704259948,0.0123364199431187,-0.002174835466041
0.00491016893010271,-0.0548633376529458,-0.00613595498029561
0.0164926025050985,0.015796244826171,0.0584513907265758
-0.0595091649568234,-0.0042161362531685,0.00230012251125056
-0.0223589270576311,-0.0237634065016617,-0.0186296624176532
-0.0101764528490212,-0.0108286477941634,0.0162870384246712
0.0272945036621556,0.0254380648234472,0.0122594978255516
-0.0187761703180352,-0.0222118654097417,0.0329746132430466
0.0545181051467671,0.0531900221924021,0.0348798754042141
-0.0422258000277925,-0.0146623990065662,-0.0169281083416836
0.0265988178575044,0.0135625692337035,-0.0140091360400654
-0.0403710425949761,-0.0416125196119693,-0.0196245215020809
0.0354990707981401,-0.0143249768226498,0.00163258265524702
-0.0207784300695394,0.047134516986442,0.00130463305636519
0.0126428008794238,-0.0107815668849441,0.0193410866897609
0.0288560734945047,-0.0106427426373003,0.0025397919712532
0.0102390264573996,0.0107004092731905,0.0275537177725452
0.000148603610522713,-0.0518771947001642,0.0239836632979941
-0.0823119463019563,-0.0351843673947988,0.0521252410388213
0.0355673482027107,0.0456225979643473,-0.0453319008192699
0.0220191970423353,-0.0817479186288642,0.00324871761094081
0.0247881000002583,-0.0214062463847631,-0.017986672495163
0.0538915029759139,-0.0127666504814749,-0.00943610222569417
0.00695314122996216,-0.048746762594884,0.000116297941594207
-0.00259132315076072,0.020569123285246,-0.0681153142743447
-0.0149647033386086,0.00432757665083816,-0.0105484210387145
-0.0165513237925204,-0.024089712501844,0.0375512725809044
-0.0191424698176623,0.0131851240616275,-0.0749548539476862
0.0494037479339366,0.0601844884175967,0.075307588512602
-0.0165760095778229,-0.0943441459047669,0.00994494621318376
0.0147670035842047,-0.0879188814467269,0.00262629193800523
0.0217767689297858,-0.0963624155256673,0.0152725490787784
-0.0430500695137929,0.0416070063029089,-0.0260718989263277
0.0126388820409651,0.00112278692335344,0.0226585533481082
0.00574330381834076,-0.0734986927056053,-0.0481766671319638
-0.048183039127891,-0.0112092165042836,0.000706334136772901
0.0273375433862035,-0.0204162717500384,0.00965323413924934
0.00672554715441154,-0.013527081753664,0.147212366880205
0.00225063368747436,0.0288846047772584,0.050542137941141
-0.0501627460846609,-0.0146542963271752,0.0132115423733788
-0.00362893830202754,-0.00885753402346301,0.00381754893563977
-0.0332370609705154,-0.01663342137037,0.07557765344673
-0.0156746452846747,0.0410926961620883,-0.0118597060566772
0.0104995418642795,-0.0066375819377108,-0.00931114092881281
-0.0134135490270396,-0.1116985689158,-0.00928234394227501
-0.0202312285411708,-0.0169755918184119,-0.0313934556650369
0.0098086432413812,0.0213811397346976,-0.0215017099172366
-0.00822469945864379,-0.0608484850413608,-0.0280591669952454
0.0555924067939295,-0.00955825861603887,-0.0533619092847747
0.0117492185753015,-0.0271766608904868,0.0230953442441714
-0.0138049505908939,-0.0246927415942342,-0.080245947229815
-0.0342395564491716,0.0365169768302924,0.0111994843654509
0.0029387153567836,0.000297091947387806,0.0128633996593942
-0.0177760327884719,-0.0252574083240506,0.0549831117451946
0.000615075049271385,0.0445750537017539,-0.0234375580248719
-0.0483428207815134,0.0179774691069747,-0.0191589418014918
0.0203870934418862,0.0184237081701344,-0.0695242815438538
-0.00728812268800738,0.0403578259276461,0.0145230471082644
0.0518271812756305,0.00350499920031866,0.0736278384232946
-0.0362852804579696,0.0216903607121939,0.0219659127235654
-0.0170835371165148,0.0255177607772115,0.0162835715789637
0.000248810185829784,0.0755481085226883,0.0157315125078275
0.00424988340337469,0.0337305970231708,0.00060767156163502
0.0239651648099495,-0.0574193347649437,-0.0380252371117417
-0.0262311689707865,0.0155884729460832,0.0291042487796847
-0.0193238941795141,-0.0053083978668953,-0.0110806191475445
-0.0293476904978626,-0.0526775901476541,-0.00977908853956699
-0.0120744348263198,0.0321887713634567,0.0741297527896541
-0.023076440718991,0.020324645639065,-0.0555563170300816
0.0186891253937804,-0.0125791001084018,-0.0461885427315535
0.0106162163269744,0.0256685330367147,-0.00461577581784089
-0.0189864857867372,-0.00504156630052618,-0.108027788266096
-0.00772008355163864,0.0508838412238435,0.103785999429494
0.000780622660009833,0.0229439246957827,0.0590601081512932
0.00641906384572355,-0.0273800310346909,-0.0121962465684496
-0.0324957485780694,0.0253113396985613,0.0207424518530602
0.000446729650825262,0.0327770706848798,-0.0320137968993425
0.0455301542037376,-0.0184651706312284,0.00339499332934451
-0.0223058200404064,0.0185182017706336,0.0188973242680858
0.000457773245144686,0.000263824131559787,0.108573933568893
-0.0199600698633967,0.0101925260503581,-0.00303185622646758
0.0377599768259572,-0.00922023655271795,-0.00654210189213245
0.00173365932145077,0.0288476992570234,-0.0321544298517734
-0.0349211474765569,-0.00584693886907395,0.0199249851431988
-0.038835282925182,-0.0547594468841029,0.0518111623923615
0.055637935981176,0.0641700379212464,0.0903118753768254
0.0163446709777478,-0.025847756830174,-0.0065298757761143
-0.00484305792548922,-0.0164128090394908,0.0427164370131712
0.0277586560278363,0.00499973111668639,-0.000124254128880908
-0.0267009233439409,-0.0254934266908611,0.0259042971526215
0.0398163876135862,-0.0189400974675679,0.0324593267652283
0.0156101594825238,0.0054976066324986,-0.0443044484342006
-0.030689792934004,-0.00413468460720395,-0.0138482056417126
-0.0661720926710351,-0.0175510984380948,-0.0419208022303095
0.00770627288138515,0.0365820289062797,-0.0470763880934546
0.0130306564755842,0.00272554421929123,0.0153268561924553
-0.0396942402540335,0.02414401288444,0.0337897341929246
-0.0425375199868381,-0.0242355991764459,0.0628504236167773
0.0126061153455042,-0.0548328936146281,-0.0124924541174963
0.0271628134166921,-0.00738798827927811,0.00435488457992392
0.0351223495985126,-0.0343027584447414,-0.022189251306579
0.0804290658340595,-0.0895270503186836,-0.0104368365858926
0.0228365690217233,-0.0952797873362599,0.00956751868338068
-0.0422980412269958,-0.0331730261868842,0.0459473210627361
0.0302057036915957,-0.015121268624557,-0.0534261586033483
-0.0138263491287901,-0.0219214895963532,0.00603400135466592
-0.00954808323280326,-0.0079178391788991,0.0155791865188004
-0.0101887142357283,0.0271143956887396,0.0241230211276737
-0.00849020644075715,0.0667770137799542,-0.00081209768195345
0.00443115008004491,-0.00496966391234608,-0.00359609531496263
-0.0122406414593783,0.109337071782753,-0.0162017148854144
0.00346667704294257,-0.022377406554821,-0.0421130171309992
0.0402423894339736,-0.02703320758702,-0.00457127995488626
-0.0491503854182413,0.0225021977450501,0.00632493487025887
-0.0205599863079423,-0.00152133448058905,-0.0829113730338632
0.0218365088082658,-0.0216970433114366,-0.0342987148940483
0.0476969596909094,-0.018308263509956,-0.0565825274073323
0.0026872807076388,-0.0101795503372855,-0.0104482405933184
-0.0916900987359796,0.0209285217835106,-0.0240703403379787
0.111702998068685,0.0026054161190157,-0.0115356562458183
-0.00345731229833102,0.0356534481804904,-0.0526426560453356
0.0519401236443289,0.00347572402126268,-0.0108641445057232
0.0104974133626723,-0.00662633534403556,0.0667016104028144
0.00182524948751994,-0.00110933674411683,0.0206736050309878
0.0161479017532761,-0.0346406005524154,-0.0148450309291668
-0.0409127770572631,0.021500549114875,0.00271165565153871
0.0516826231026937,0.0849292194893951,0.044643952554198
-0.0388497344180516,-0.00604251921295473,-9.36193904990112e-05
0.0174792474834445,-0.0127240915619642,0.00753451631443525
0.0067609231257873,-0.00556302783581686,-0.0024783119562152
-0.0200392848852006,0.0185133631691078,0.026385050925349
0.0160383534358697,0.00539296019198247,0.0541524869605634
0.000746143004973665,0.0126273888162531,0.0346610927677691
0.0485494850807838,0.00699181808824167,-0.00701155418798183
-0.0435654462069541,-0.017261659959368,-0.0906890948709942
0.0454976365071169,0.00601880931053522,0.0886393290688446
-0.00932221255224552,0.0130801599426054,-0.099881350517337
0.0242015131334725,0.0131743352709631,0.0294922244434389
0.00429730394776962,0.00891028220674461,0.0379242792815212
0.0670162640001989,0.00469546254529929,-0.0333144450831201
-0.00930316566139587,-0.0170024178091518,0.0164906247026759
-0.0139979759720456,-0.000525469635822479,0.00422275820779461
0.00158682863355869,0.0126823587494707,0.0526431100091902
-0.0176793313161808,-0.064582348488296,0.015866109567974
0.00734807096518047,-0.0150826360691667,-0.0456030231402518
-0.0354553350662062,-0.025706119853657,-0.00205448918409742
-0.0199704730622054,0.0167348006291027,0.0204865060285139
-0.016687014016756,0.0223542548241664,0.0630192923035874
0.0277293210383198,-0.0578980658743512,0.0316163112191415
0.00951106154599729,0.0512838862874858,0.0432406458166575
0.0154380276765415,0.047809652147564,-0.000120190554542231
-0.0353430390412418,0.0158152885797149,-0.0408095220983589
-0.0574479424881224,-0.00202883309184487,0.073466616087647
0.0218275415021146,0.00445192602352895,-0.03979185740539
0.0442434285264462,-0.00112376247981805,-0.0110571303149203
0.00899130288414618,0.0112340801278267,-0.0171439191939097
0.015426679738866,0.0409043891984302,-0.00414063085858889
-0.0314744347209843,-0.00417066321119542,9.27107939492355e-05
0.00660451602357059,0.0224002954595195,-0.0516364485335065
-0.0751830724263352,0.0170409603555059,0.004151233134296
0.00539153244576304,0.0403766261182036,-0.00146075361500247
0.0186215827889095,-0.00155098786919927,0.0314491891683708
-0.000546537642260148,-0.0248678069501336,-0.0169511147446331
-0.0588648041567634,0.00317922084482747,0.0341899521171041
-0.0149146314528887,-0.0303254330637052,0.0206031868887034
-0.0590346162746956,0.0299213478403865,-0.0219937843593078
-0.012932285426397,0.00604155132206835,0.00513765865772108
-0.0103750047203384,-0.0204419989249801,-0.0101461461287474
-0.0135982757251658,-0.0223497868978737,-0.0169667258939384
0.0380658621731988,-0.0462299971808363,0.00318251540445919
0.068493667877318,0.0179815800616397,-0.0957299780472635
-0.0434745768670149,0.00361778314467731,0.0141794665249956
-0.0151528291612651,0.0036837405799558,-0.0118454149536896
-0.00644219307682126,0.00774338102880323,0.0331375080699404
0.00706848860998999,0.0103293851250268,-0.0204331952443685
0.00554625667764663,0.00855245740986765,0.0145466056127732
0.00741956312750003,-0.0073144644385057,0.0463299854726423
0.00165984958581458,0.000838568914327764,0.0666683437505257
-0.0308787726938784,0.0101740631246861,-0.00281254144452064
0.0108453789271126,0.0073007888186586,-0.0866081598337584
0.0463201963643262,-6.08205791383688e-05,-0.0150914931670424
-0.00498353003795896,0.016067329763463,-0.0293243306028493
0.0175322813946616,-0.0615354726001386,0.00317283236404733
0.0112098344633168,-0.0440731524618465,-0.00532600586700463
0.0149076800071182,0.00010864395681498,-0.0269980857273108
-0.0439953984362282,0.0297473951744832,-0.00869569526393232
0.0168863668880462,0.01019900994103,0.0218753409082967
-0.0388109067476738,-0.0324462729187826,0.00034529528455599
0.0110554338434555,-0.114653822373289,-0.00508570732665203
-0.031906727484104,-0.00739860905020895,0.0483641213740892
-0.00917281258760994,0.0404779410233709,-0.0260509309570377
-0.00444262957322794,0.0497255483418169,-0.0258753935093632
-0.035604679235533,-0.0276372997837376,0.0747687316374218
-0.0460670287820967,-0.0429903168105118,-0.0195083295145667
-0.0477953351573369,-0.0216661911325005,0.0181084953250118
-0.0540127603920185,-0.00578368564722867,-0.00663087205239715
-0.0157249024389527,0.084717711398944,-0.0148455513322228
-0.023573521583393,-0.0298229972801003,-0.0585523999750956
-0.00332429100139775,-0.0345433985480776,-0.0312656845506997
-0.0272711945215465,0.0155131897449118,0.0249587641440488
-0.00743995753263549,-0.0252958954980356,-0.036930721978497
-0.0528105985475604,-0.0174013050724468,0.0150546827174628
-0.0160136100284167,-0.00639863894462567,0.0320753216829792
-0.0410933479327277,-0.0310644618263897,0.0329779101525249
-0.00427502829626469,-0.0209196356473557,-0.0148370219612112
-0.059735636450055,0.0462727904169711,-0.035737898053344
0.018813791816482,-0.0297245803553854,0.0774984291615568
-0.00102739395403122,-0.00890085403049348,0.0442633755547149
-0.0499649380112978,0.0111582926311479,0.0305621692406868
0.083110696211555,0.0681042942386589,0.034335122632011
-0.0377067939661797,0.0242405668592302,0.024227390462377
-0.0441921552426432,0.0214482897730681,-0.000138893413321371
-0.000494030180171051,-0.000586052064772136,-0.119806107435124
0.0100047275197601,0.0699310419718933,0.00625538719280239
0.0127940975108902,-0.00302045994694555,-0.0208700097146485
-0.016101831072612,0.0446380167475951,0.0437290561626165
-0.0416386746952742,0.0523426619105947,-0.0625386837693194
-0.0670372938656337,-0.00317211238182546,-0.00583976627559968
0.0103897900604512,0.0584753991927853,-0.0328414859998944
-0.0284531759042609,-0.000384857942113973,-0.0237853227566164
0.00228516595472283,-0.027762342035609,0.00682771972902108
0.00548301729737788,-0.0205387163724888,0.0492509432674769
0.0348465858226799,-0.0179403480119387,-0.0656954013123465
0.0112798094884569,-0.00517283099221921,-0.0382844025876032
-0.0148212575394921,0.0144460670798897,-0.0149615020800512
0.00507964965701452,0.0285000760406106,-0.0103651817008029
0.0110467334770163,0.00500366491199383,-0.0183356767453723
0.0030995120248628,0.0411727734776786,0.0114615493059651
0.000296764443091915,0.02684034588872,-0.0262527098167443
0.035217197528095,0.00864387461909608,-0.0453996406824462
-0.0211548780351576,-0.0270527745900998,0.0222926507975111
-0.0699650565900838,0.034814901680844,0.000336712396355687
0.00422238539093833,-0.0175558575545305,0.0174744709912624
-0.0482522081610501,-0.0680498261765486,-0.00418885476653363
-0.0463054183586963,0.0729231965211291,0.031644782088843
0.0643297841638364,0.0643747547715194,-0.0219041194918774
-0.0468756152200697,0.0278030763090227,-0.00248325574480324
-0.0295315781062121,0.0151195268852112,0.00770387911928028
0.00557036098440847,0.0394502413290164,-0.0156537215651127
0.0139231954152895,0.00552965941291539,-0.0262289747739326
-0.0447867602624413,-0.0366262638564027,-0.0190913168577509
0.0221989173438876,0.00149718954122202,-0.0186295219659031
-0.0159931516701557,0.00684220692480185,-0.0589421780482444
-0.0234202038132763,0.0484070340737568,-0.028318741029232
0.0322720500193712,-0.0032792917306147,-0.00846171997772105
0.0128032492509189,-0.0172164439197741,0.00475269541661799
-0.0460874942167599,0.0158310330707054,0.0323616907250632
-0.00251333273211835,0.00793857009100227,0.0354746758834268
0.0697321595694957,0.00504476345319083,-0.0165457854051249
0.00170798676968631,-0.0351723943949711,0.00819741180195466
-0.027681408315167,0.0160609407909699,-0.00330498299885962
-0.00600355336119907,0.0199185321942144,-0.0607499911012073
-0.0223069751456824,-0.00608050756801487,-0.00715646246338586
-0.00338244070616142,0.0457247295655729,-0.00500658178154223
0.0625418070845892,-0.00203734483803353,0.0026294896225596
