"const","linear","walk"
0.0081663873804555,0.0204885770153739,-0.0143266397359956
0.0335118706551065,-0.00766443048306842,-0.0479290585164679
-0.0453993173208631,-0.0418642040267364,0.014759499058177
-0.0618909451062933,0.00370145810160927,0.0166490703589806
-0.00870997552422981,-0.025952221781261,-0.0544315705637565
-0.00480269279717704,-0.0100467592085922,-0.0249394571008371
-0.021157043458137,0.0121888221243672,0.026414012673281
-0.018072041036988,-0.015611652605639,-0.0580943984980276
0.0489310819540802,0.0020914941465896,-0.0210534463517037
0.00751155649702351,-0.0169825963338671,0.0551908235634027
0.0159232953647744,0.0106565118109353,-0.0200899230746274
-0.0528815896233115,0.0147552491089876,0.032301592187671
-0.0442569257162559,0.0164030246987075,0.00078566602300012
-0.070770173444531,0.00526836516845086,-0.00245312842727469
0.0396518900173682,-0.022612664101916,0.0220651034895042
0.00849634109670172,-0.0689021181553791,-0.0230055985717019
0.0122667334266606,0.0633204529827787,-0.0178068686332741
-0.0514671802843055,-0.057754159131174,-0.0195130380388168
0.0341247367024737,-0.00112364975895479,-0.0138547096357282
0.0230456994493525,0.0189458980888094,-0.0515376246154415
0.00220885953218682,0.0219080510802619,0.07040174966257
0.0484768876624537,-0.0225755939063393,-0.0195530721962116
0.00309480777493548,0.0475515541069245,-0.0257288079633965
0.0568194510223635,-0.0566740130993038,-0.0147099493876603
-0.00516284940524447,-0.0240111448956841,-0.0163185619839744
0.000344546253557565,-0.0202850072386845,-0.0204659275826937
-0.0649213593914155,-0.0107763482849181,-0.00519131707775361
-0.005634601921783,-0.0199427938446711,0.039553071718862
0.00528217445485568,-0.0199457826032141,-0.00601579157499554
0.00893509246071489,-0.0330568737601329,0.0515277432016627
-0.0134060061744531,0.0531606518149412,0.0152991519509793
0.0164542112415423,-0.00357292247045538,0.0171048502489265
-0.0420872475896171,-0.0809452842605225,0.0134418448681349
0.0186273773553897,0.106883403527784,0.0240905185055941
0.0252376776841905,-0.0501827588649294,-0.0862598133274645
-0.0637858003761437,-0.0404229966913413,0.0416989925063559
-0.0273990046881827,0.0685044747156237,-0.0190885454185499
-0.0787714659444502,-0.00314140698221244,-0.0495287959576164
0.00439010542993534,0.0543447467426716,-0.0285657493581414
-0.073268533649108,0.105718536654551,0.0410527266190416
0.0240239357361849,0.0115300359681886,-0.0058584620987778
0.0125128060012122,0.0293485899734591,-0.0076380551087874
-0.0941414141906533,-0.00860820633131287,-0.0169856426443318
0.0335727339394195,-0.0074181786183502,0.0108136994529349
-0.0168212997633156,-0.0539649548111386,-0.00382298147223575
0.00917533646925395,-0.0428221345832925,-0.0290893697681824
0.000162606842318058,0.065590838304921,0.0053631625976065
-0.000162887692919056,0.0495107078538873,-0.0269739316071745
0.0135344701582497,0.0469944381096774,0.0290914915594653
-0.00258351339000618,0.0152998512788661,0.0090806940297386
0.0154185389067639,0.0905233652930123,0.041010340786365
0.0490551469271049,-0.108636240445918,0.0177821359697754
-0.0415342843440493,0.0151551498963202,0.0303979324247967
0.0137271861398388,0.0451375238349189,-0.016804078956688
-0.00894141670079107,0.00128248019990967,-0.0335202747045167
0.00130335291226849,-0.0115982849371086,0.0682440998178666
0.0168898345279103,0.0262594394467159,0.0330568631997942
0.0229341189660544,-0.0158808414532202,-0.0647194257680441
-0.0684265434567333,0.0315123448095892,-0.056374224640114
-0.0409393120295792,-0.0691940177980836,-0.0167431052640927
0.00959806057057752,-0.0828403026066508,-0.0196520768823099
-0.0154779885114121,0.0125887641984803,0.0541742585376209
0.106230401790789,0.0503898846817621,-0.00149931251480151
-0.0166492148542992,0.0557587373206799,0.0239998427936517
-0.00417250296628602,0.0753659270867629,-0.0192394888250327
0.0231162646662408,-0.00208057472852918,0.0246234178004614
0.0240283173646963,-0.00100901741016041,0.0561204378868747
0.013781342340127,-0.0888873101919601,0.0312690400524631
0.0208566269088346,0.0264199688976812,0.0213913262185985
-0.0375222122530898,-0.012703114309955,0.00861302877163617
-0.0805449812750474,-0.015775326523544,0.0209502048484352
-0.0358855868625923,-0.0109646729873922,-0.0946283450756498
0.0418532291519623,-0.00798773379620443,0.000153280103403985
0.0117851419343588,-0.053074138081376,0.0517352775971486
0.0592264073207391,0.00803117737501158,0.0925029048876314
-0.00555113752576875,0.0706226081152654,0.0257911626522195
0.0875994492916488,-0.00296895114983053,-0.0123650334900763
-0.00443110659094959,-0.0138033876905793,0.0379056840328957
-0.0484605584231844,-0.0152208153219343,0.0548606802909698
0.00968444385402745,0.0164457349377308,0.0544244577691956
-0.0346883459413521,-0.00487111533212958,-0.0835891550655644
-0.0110248341442435,-0.00797680379537791,-0.115695885620149
0.0218729238877501,-0.0106193433826131,0.0236536839733767
-0.0103790240742825,-0.0141974214242216,0.0014186410757287
0.00013753140780598,-0.0482822907573538,-0.035937235590471
0.0274846049902607,-0.026633827452243,0.00738122135821262
-0.00305240620462999,-0.00252027680793909,-0.0715249156880685
-0.0229933164244999,-0.0293181737840147,-0.00283880723187512
-0.0443983730241423,0.0421686283663952,-0.0115173408341742
0.00966874933953421,-0.0417232810977864,-0.0625008257365749
-0.0204893751855116,0.0594292180881459,0.00456295459535438
-0.0141971774231465,-0.0704698421412529,0.0370613476894381
-0.0276692866062294,-0.00587540726133251,-0.00910522652985568
-0.0256058687045545,-0.0257594058381331,-0.0141279821796377
0.0299815551681836,0.042703817580705,0.0389290855576411
-0.0328975560143047,-0.0406151634449523,-0.0216936685811651
0.0177876721166229,0.0323767131714053,-0.00272473171210574
-0.0298347748887275,0.012898485043999,0.00343572376543833
0.0430544940983382,-0.00185422434519478,-0.017069495391703
-0.010025102537783,-0.0248607435688695,-0.00199263590691345
-0.0126378490793757,-0.00632236874055481,0.0203668684159807
-0.0296397977990381,0.0101667989577678,-0.0141381295222754
0.00142069625252376,0.0191013938795686,0.0430327873999914
0.031636701098186,-0.0113566727141769,-0.0364941886733756
-0.0528806036506239,-0.0144613748397356,0.0438552779879831
-0.0244496272182588,-0.0375777120096109,0.01270605497749
-0.0297970852342756,-0.0260939048537975,-0.037044408727217
-0.00124998203478752,-0.022884326344097,-0.0156095551866959
0.00616067077486754,0.0147938259544388,0.0287949502937353
0.0210423305822711,-0.0459712572359965,-0.0172801693411914
-0.0604874516829411,0.0493480942011525,-0.048293823484815
0.0190524877082167,-0.00752030475223298,0.0452747279784433
0.00440046990433124,0.0109839297885559,0.0221543169724719
-0.00246661812670457,-0.00254859052095879,-0.0151866848794137
0.0303419854920879,0.00490991364877336,-0.0536202463999859
-0.0916429052404817,0.000120879868416135,-0.0118110124413108
-0.025636851079653,-0.00480907792125734,-0.0505121987339813
0.00314401551125915,0.0163265356998376,0.0249414420839275
0.000890418335121039,0.0355040660179712,0.00379716254987179
-0.017903265994532,-0.023494075597895,-0.103673429425313
-0.00374217206863875,-0.00271302268050796,0.0570569348967905
-0.033679732147935,0.0113229014144203,-0.0180192039710113
-0.0291605516570106,0.0307290873944652,0.00538349007480343
-0.00130028691259398,-0.0135350002866556,-0.0496718386461329
0.0878890201606251,-0.0366651829905883,0.00888577025162296
0.0105244219606473,0.0369124637429093,0.0170151750069254
-0.0485213581237744,-0.00252751662894346,-0.0140724162477778
0.012924766197643,-0.00151825142112005,-0.0763037247365234
0.0281583037026202,0.0049808303284184,-0.0325525163474172
0.0527081652622735,-0.0503199051427166,0.0124223544099532
0.0486728658982982,-0.0503168964925942,-0.0268087104021173
0.00338909728859332,-0.0309942516979486,0.005357339259909
-0.0014813886141638,-0.0366503863836454,-0.0979429721351794
0.0204178004754683,-0.0116341907447999,-0.012741453160316
0.00591018331617932,0.0449337320109572,0.0523747932893615
-0.0525698675374096,-0.069012536934088,-0.0376510271795834
0.0781554150447717,-0.0222582907398254,0.0417881747498704
-0.0560939877273276,0.0407550784618702,-0.0195995104456517
0.011217943477229,0.0628336343814537,-0.0710487806363861
0.0714993895918679,0.0381527475604837,0.0413777237841078
0.0111332825190853,0.0116701327446956,-0.0369224164076849
0.0262065189012047,-0.000285882847949013,0.0559720878821567
-0.0349574234487013,-0.0183358039371622,-0.0226030551107309
0.0512016788574178,-0.00890122133148474,-0.0451750881234598
-0.0242072800017257,-0.0135786883242545,0.0345718529714856
0.00186785517753696,0.00648256568860639,0.0605617028968312
0.0311228121949849,-0.0275114451331887,0.0265526620973053
0.0540155926448006,-0.00625194384056704,-0.0108715656046868
-0.0528193027193153,-0.0113163033469685,-0.0203481216537853
0.0151379191538417,-0.0211080879354006,-0.0562436510651183
0.114681457903908,0.0404125776418333,0.00770402033124906
-0.0443521758593717,-0.0339443922206188,0.0146475369542012
0.00775968974759189,0.00304595791479201,0.0369943542643706
-0.0364991174611872,0.0638962435748566,0.0255447249372975
0.00352382833017656,0.0274237748155693,0.0419479672636181
-0.0401618735787869,-0.0679324263431297,0.00155725213064883
-0.0310494336355965,0.0659557371445877,-0.0847875992395377
-0.0081260276364594,-0.0205992771804741,-0.0210038125869794
0.0400200964503309,0.00837894679845497,0.00745847546287259
-0.000721193748862925,-0.0262951523772742,0.0203389595028253
-0.0331657926392503,0.0951536221921419,-0.0333744423926189
0.023619640838957,-0.0201813101785623,0.0312738639431904
-0.00807518440633581,-0.026846999885387,0.0343819305431948
-0.034538017206443,-0.0499522436130654,0.0575007247172468
-0.0085404901880799,-0.024864983071447,0.0141204300981115
0.0214433551766865,0.00548096798559361,0.016546957089362
-0.00108124975512476,-0.00982046225979272,0.02369429968113
-0.0199016377997359,0.0757399200384018,0.0078533476600878
-0.0281627925817524,0.00298215571629012,-0.0656112071639238
0.00463228291289088,-0.0615274062181353,0.0711818260497752
-0.0520921238890963,-0.000798700448253364,0.0119089472456285
0.0876082533391886,-0.0412008499535031,-0.0125177648914587
0.00907043176079969,0.0824233338299314,0.0347968042438033
0.0185893504776717,0.0346653156384549,-0.0276715973825517
-0.0189875686838195,0.032043234452818,0.0043721608048255
0.0112609134571835,0.100336490626044,0.00849167284080521
-0.00257520345515438,-0.0488642113512229,-0.0727820299253099
0.0353280505348543,-0.0199036155114012,0.0855072281328846
0.0510158282335551,-0.0185528177665819,-0.043477163630231
0.159644285786854,-0.0249450875786519,-0.0432411288664704
-0.0307097896573022,-0.0595485410384959,-0.0241368845731633
-0.0225857018297353,0.0384408388508014,0.0164053005978019
0.0472726762404618,-0.0734506076469164,0.0123504304368698
0.0397646501280053,0.0194257098916611,-0.0950805613377138
0.016868731282147,-0.0512807982007512,0.0432325158029152
0.00156041290375963,-0.0142701668349901,0.0323240813829975
0.0195423742324645,-0.0252394976906964,-0.0701370220411498
0.0309294733386521,0.0462805228318256,-0.0244078367856789
-0.00481908221123975,-0.0354892891392871,-0.00125176493481949
-0.0145571507201525,0.00624968108976082,0.0129030137127337
-0.0225963031736002,-0.051879229513678,-0.0195017093821755
0.0307160830957556,0.0151336788724173,-0.0463699022833393
0.0116261907116644,-0.05094956452514,0.0214105681293466
-0.0443422020061168,-0.0507074432311005,-0.00604030180713014
0.0199712293247019,0.0085794712688837,-0.0159669168717194
-0.097683008601023,-0.00330363797197109,-0.0182319543930896
-0.0326473463558163,-0.0430531321228652,0.0311859773416915
0.0342638354590333,0.00595639443745177,0.0872903581845638
0.0473562502918975,0.0153577914373015,-0.0157866906338477
0.0381329497548263,0.070222977377542,-0.0240092927100237
0.0345772660900676,0.0391855327901306,-0.035239247245459
-0.0342884378349071,-0.00202713577164293,-0.0360469101892973
0.0353961463363339,0.00207575143687966,-0.0543629385871337
0.0299997207185367,-0.00436203196501617,-0.0413138121371548
-0.0112361474100868,0.0434135933741205,-0.0216962573643809
-0.0713334875459676,-0.00828413387361537,-0.0168597019759973
0.0158568679181331,-0.0270395003066416,-0.0107223120774453
-0.0227172446503405,-0.0583428847109235,-1.49780599367766e-07
0.0260587956297268,-0.0184008435776682,-0.059711431846337
0.0693488244405251,0.0115972260726666,0.0623719544011081
-0.0655048503345611,0.0358827823493503,-0.0410633870350516
-0.0127359806801642,-0.0193560432295655,-0.115842131280843
-0.011015024185415,0.0149975167391897,0.0183566126352664
0.00155851834945431,0.0622212119073596,0.00785216882404202
-0.0447958444657609,0.0116529267268402,-0.0189011735191908
0.00662379183672746,-0.0562835013601162,0.0445011330356018
-0.0500262495861504,-0.00484799259337909,0.0181537932934793
-0.0161321141549599,-0.0179609934293042,-0.00948568314783338
-0.0298357863166958,0.00322822085036734,0.0235687135673058
-0.0694128814706419,-0.0197928310702714,0.0198627525471271
-0.0458934972435406,0.059265691651974,0.0134990049098123
-0.029899544527582,-0.0490968607579224,0.0886614094321647
0.0310843814022037,-0.0649716608392101,-0.0457327034537914
0.0221512566549858,-0.0185448649966237,-0.0236687861411931
0.00602740499907917,0.00932562488915492,0.00724084072608661
-0.0190626854458516,-0.0302103043039201,-0.0214539083247425
-0.00360809529122824,-0.00999202239903518,0.0199859161287843
0.0556129264925803,-0.0061851025508779,-0.0149944956943657
0.00658747328304277,0.0513558314460754,-0.0332064531638535
0.00622750118237481,0.00789249035264605,0.0830718394205557
0.0300201748524344,-0.0139955091589761,0.0488726793723067
0.0165417560908184,-0.0231887772938678,0.0107461376320238
-0.0348946779605425,0.0192811908567069,-0.0655257954325989
0.0641376842198517,-0.0142464145129256,0.0418142607672159
-0.00192487396708785,-0.0566951243111061,0.019919348072741
-0.0469922565984301,0.0235693975469462,-0.00503580085741143
-0.0383129929931955,-0.02113244474799,-0.0110541912155887
0.0211787489363767,0.00700773302676658,-0.042063931182157
0.00155095040663722,-0.0113251075556198,-0.0853772142290116
0.00489828239454787,0.069233038075811,-0.0326511177773514
0.0149416401100599,0.111784092114777,-0.0105532908253712
-0.101960947242745,0.0390199301744649,0.0388300491497679
-0.0722910243648851,0.0795579606273953,0.00577315875558171
0.0384060230834315,-0.0189422354233051,0.0102940844750479
-0.00656814533767969,-0.0111314466368466,0.0313432108606378
-0.0546294982410466,-0.00494929772344814,0.00631815182778966
-0.0211954443079678,0.0278923648645573,0.0682426139085661
-0.0255213603532577,0.0211223797408692,-0.0393042365245528
-0.0170434178350329,0.0688602030859918,0.0130049430383787
0.00887795352783616,-0.00785384764103918,9.38397533533086e-05
0.0444908619986207,0.0280353789401837,-0.0117348335838499
-0.0207144268617619,-0.00030668483892915,0.0262195332851686
-0.00948341731907999,-0.0317328205882649,0.0143618755480392
-0.0638548989401718,-0.0710120048548035,-0.000393240580165211
0.00764148203842295,0.10192551020513,-0.01051109639103
-0.0301640211231096,-0.0752646019684927,-0.00643236418904312
-0.00273386266290121,-0.000874775086151858,-0.0745579681590484
-0.0189841790242218,-0.0479196757674478,0.0221723444695415
-0.00974974277185958,-0.000847822952555394,-0.0202581830419347
0.00142115064070381,0.0161832047726579,-0.0453023115938197
0.0496881932545932,-0.0219127479603787,0.0141383643922194
0.066344217606102,-0.00502222301826438,-0.0262330023551362
-0.0394886708696173,-0.0138534260690536,-0.00337305409133137
0.0694591935709141,0.0460363452695627,-0.0125963870540921
-0.00238798937553777,-0.0323975269386102,-0.0533701232539526
-0.000673400711183159,-0.0545122210363942,-0.0136586377702765
-0.0390270124418754,0.125007710849891,0.0151205448344655
0.0014739345356426,0.0492087362978271,0.0207519539672898
-0.0588744417021675,-0.0139168532167221,0.0390974792322308
-0.0429803918847033,0.0323076065699653,-0.0509779585940323
0.0286701984870197,0.0300791343450382,0.0192937022219969
-0.0127964950313925,-0.0619623258885669,0.0176141846965978
-0.0428233179383438,0.000871157296256253,0.00549636312521697
0.0290561814585172,0.0230558953406896,-0.0492581387584496
-0.0212233026856821,-0.00223848480331035,-0.00329584325538079
0.00718478338245021,-0.0240165775932774,0.019447320555881
-0.0747697507608153,-0.0131900321872191,-0.0295117030627514
-0.0296563587445374,-0.0362757007182297,-0.0566428275685514
-0.00237965055649664,0.00872931857278469,0.0279415401145746
-0.0263177401334014,-0.0167900741289921,0.0319485597957602
-0.0440845448301933,0.073014212696319,-0.0208434762353406
-0.0558351316559479,0.0230874591215119,0.00101747697075871
0.0238582774519385,0.0224320774746958,-0.020975514418719
-0.0906820979603239,0.0816237593290874,0.0015292258612236
-0.014579362417569,0.0520626198026016,-0.0488327088001381
0.0331278769837033,0.0314767395740854,0.0259550769390778
-0.0545453754133532,-0.0357645735326217,0.00385493545773707
0.0455837174974671,0.0361609266667792,0.0580111995615589
0.0218751136887619,0.00464697482239429,0.000621580381657938
-0.0660635042092392,0.00137316839038071,0.00758190323701273
0.0632807426181472,-0.0456842803007594,-0.00730280270937333
0.00029586934535053,-0.0494046328160723,0.008787684178445
0.0332061519378766,-0.0555472665554299,0.00500184726127895
-0.0112862436006883,-0.0134750551048435,0.0158882421121009
-0.0645363672646055,-0.0337860975665832,-0.0365933840508057
-0.00372189274083956,-0.0705576959949938,-0.0250917104130426
-0.0479590783401501,0.0475114961964084,-0.053906007377154
0.0138416549341317,0.07241351770172,-0.0404106964868193
0.0538553081777141,-0.0100401220602924,-0.041613737044994
0.0133634619805543,0.00234145377769579,-0.027187709344467
-0.0298625308809322,0.0144756345321413,0.0663842732920505
0.00301409105573797,0.0897233260894857,0.0257738574260489
-0.0323243941035709,0.0272573778653329,-0.00207331242959894
0.0277935660037107,-0.0162872882860647,-0.0119075042676253
0.0435676393715312,-0.0333852126960296,-0.0689868743886283
0.029866995110376,-0.110403039088603,-0.0200371992191414
0.0312884511024999,-0.0367673181380173,0.117804342547357
0.0283842713857676,-0.0409306022982092,-0.0618782983887872
-0.00564550047469192,0.0486880839739283,-0.0304245571483057
0.0416544147174351,0.018724676881262,-0.0127624381646342
0.0353350367274587,-0.0347066610711494,0.00264526152148536
0.00135873407243259,-0.135222300296116,-0.00402872754968328
0.00238352116753763,0.0284782947100786,-0.0214171151431124
-0.0214839270291698,0.0238000159064073,-0.0698966205384991
0.0272363106020327,-0.014188021337434,-0.0181452397411873
-0.00315747635254376,-0.0208319695751991,-0.00794494632036055
-0.048890875414149,0.0171097652888844,0.0593850268420265
-0.0490694478641557,0.0429730310334959,-0.0310973968675745
0.0558893574997277,0.081591969896083,-0.0831965738813993
-0.0175497555619114,0.0490575288861188,-0.0733742062040416
0.0135535150866573,-0.0178623688039493,0.0201814891143629
-0.00012888922540924,0.00251549077523294,0.0276870822435857
-0.0359454586180507,-0.0613281934598436,0.0167323047153078
-0.0116030595234548,-0.0324450411405974,-0.0254129401017091
0.0476731618976883,0.0142978589731458,0.0127116359314327
-0.0320057731039155,0.0176690967364739,0.0315886116339508
0.0715130596955509,-0.0542915163707844,-0.00406981553254282
-0.0410688502267156,-0.0845235773527528,0.0345599446603347
-0.0299690967291617,0.0567218070755923,0.000520281929147381
0.00892707739400433,-0.0492756398741457,0.0422880444958701
-0.0395810739538284,0.0226061683869193,0.0515718082791189
0.0112039820203619,0.0558425842750024,0.0132393440692958
0.041265090359849,-0.000656758226727838,-0.00133966115410342
-0.0396587413160041,-0.0568390609195674,-0.0203315634510247
0.035178096538046,-0.0273777619810047,0.000585718945651487
0.0764424543043531,-0.0119297308069189,-0.0191724045630607
-0.0288077676484834,-0.0242303389272994,0.0453250524881891
-0.00476759643418745,0.0245977194377485,-0.0781695692534783
0.0371033899328779,0.00650604228914653,-0.0272595048131437
0.0342205337586025,-0.0493545340236408,-0.0178268451449383
0.0288612892713855,-0.0179596901612776,0.0355835627814544
-0.0562850335179272,-0.00634855019125596,-0.0216969957951257
0.0282802792025912,0.0185742981411534,0.0354320699467389
0.0101974402247737,0.0111398588804543,0.00239910319508108
0.000640223238445869,-0.0526415680795596,0.0307323145037796
-0.0203016126037689,0.0223866387645403,-0.0418945022866084
0.0225901339102473,-0.00624931725623434,0.004394625543931
-0.001660517249419,0.0255477109854337,-0.0179164010900786
-0.0279973256832071,0.000801273705402561,0.0698243529923671
0.0203715465797766,0.000616489551008792,0.0368707493405795
-0.0302840784182713,-0.000219181096604674,0.076634481467706
0.0402161820936353,0.00797712699351705,-0.0145517818001308
-0.0289421751496077,0.0527166309829349,0.0333784677225844
-0.0295609925836174,0.0107052998185416,-0.00808072627915785
-0.0240546755617122,0.0504555597497761,0.0532207150307423
-0.00744513433860058,-0.00338437210100551,0.0254105478233069
-0.0494714602607973,0.0281931693572356,0.0417601842739497
0.0188590080456418,-0.00672679869098836,-0.0433194073624157
0.0358644815963479,0.0475731493021719,0.0278346857257476
-0.0788001315605985,0.0364806619750781,-0.0179055260756548
-0.00626237317744978,-0.021481966576021,-0.00649435245479513
-0.000676112874720136,0.00123573757791823,0.00500662727676959
-0.00470268079642111,0.0270357835184281,0.00613075949886854
0.0176423766758247,0.0260151870138872,0.0196440505629518
-0.00687707544481464,0.0242642785879669,0.0209909305987945
-0.0188517529939699,-0.038531709886281,0.0257215889980316
-0.0074987729049466,-0.00429900663813473,-0.0556845652785141
-0.0770783835148219,-0.0107077863159733,-0.00660888525212233
0.0144794584698418,0.0265876097908731,-0.0898254392004537
-0.0607761780096556,-0.0441366353509317,0.0271901041183377
0.0729064934719696,-0.052391963368947,0.0508110861431749
0.0255488812369954,-0.0481339730364625,0.0950757716807171
0.0261743226566143,0.0205220751761512,0.0316035582895179
-0.0176962995823409,0.0147369292824169,-0.0454193670486044
0.0552705702089378,0.0012575126634129,0.00973530086981872
0.0290240098317018,0.0498900808742718,-0.0320658907417055
0.0412373947680987,-0.0480055425196687,0.0478218273227843
-0.0200229916863033,-0.0352340192201704,-0.00853962364200583
-0.0308887312352228,0.0820337888552146,0.0523859167036918
0.0356557011714973,0.0298623461220699,-0.0381024551062186
0.0124505181643812,-0.0101687717834998,-0.0098139551684665
-0.0330955391951654,-0.031898710333072,-0.0116446628137199
0.0367872332283852,-0.000129983274227641,0.00783077213562178
-0.0290701448239477,-0.00855745840127398,-0.0232726829495868
0.0335252349049036,-0.0158473919763538,0.00257636549651785
-0.0279300369823207,-0.0162721646437158,-0.0438528697501568
0.01647309652078,-0.0112677706550414,-0.00709793566793404
-0.00445382829969579,0.0154518382465954,-0.0723768453419738
-0.00094687706901786,0.0245545881939195,-0.0168230775616739
0.0627895823786097,0.0328073176627797,-0.0152437313209675
-0.00873438886235761,0.00377092416803115,0.00222359773763226
0.0287560835556286,-0.0942096276431879,-0.00875812365908946
0.00727485271792971,0.0626190702539255,0.033112177229418
-0.0346083990761218,-0.0204024691501113,0.0630867253063279
-0.0577105796888248,0.00939364607740589,0.0126592418482842
0.00596724642878566,0.036082328803794,-0.0141935911524411
-0.00172716302378462,-0.0682618985921415,0.0250511230157195
0.0568730400240101,0.00681979825705559,0.065626976779413
0.0129272804855832,0.00214672894793111,-0.0138316309198262
0.0307482888818554,0.0360827433703187,0.10880967729848
0.0031695495237275,-0.0546977706491755,-0.0460160088202489
0.0525299080706908,-0.0406999815683522,-0.0387157022278067
-0.00955079467770814,-0.0144884525833938,0.0223385462149834
0.00705225316936886,-0.010435864342785,-0.0199980859392086
0.00939881623155803,-0.0409811813799088,-0.0651739385236537
0.0589004112640712,0.0210461356191411,-0.0236131981540555
0.00946658220414881,0.063834633037638,0.0454252605369928
-0.00255089033098435,0.0127616316581841,0.0462093206214946
0.0208358363126954,-0.0336455086812677,0.00272911502570239
0.0193310372145874,0.00773697430982712,0.015557665518783
0.00543919006306992,-0.00194433530396684,-0.0148862864276267
-0.0781333988820175,0.0473362762328704,0.0129878811631722
-0.0508272122784731,-0.0418007462164502,-0.00604266826203712
0.0725774535972594,-0.0482834337784597,-0.0259945092633369
0.0255171821504276,0.0961482093058172,0.0717727349412361
-0.0100804322389842,-0.0222055976574161,-0.013097415685141
-0.0392066745536607,-0.0468727918340933,-0.00581207765545866
-0.00292491057721989,-0.0613207893832061,0.0939343056288487
0.00665419652461496,-0.0524428559824277,-0.00323807377593488
-0.0241395369952817,-0.0858666688466889,-0.0113464537030822
0.00808106488018323,0.00442652672996036,-0.0498884861291904
-0.00874155790275646,-0.0301082647900214,-0.0208522750471093
-0.0114479016895014,0.0437837125131708,-0.0164751469547855
0.0276887290682137,0.0267451166466695,-0.00833778975186744
-0.0157933335289799,-0.0212555002000818,-0.00872379177454419
-0.0367401575719707,0.0253773347026385,0.00649116657056037
-0.028174591898475,0.0317033421577826,-0.0307815673273452
-0.109048274418204,0.0940880312665267,0.0492174039815274
0.0170416434455912,0.024051774617609,0.0578544328839026
0.00280170194934098,-0.00707562485307999,-0.0317699284373181
-0.00473326727118331,-0.0651513145690084,0.0383776789610594
0.00768455549150848,-0.00620690066638396,0.0519413346125182
-0.0123646970184985,0.00500142021049532,-0.00526593351147897
0.0148829259446692,9.58014533458673e-05,0.035983553992063
-0.00437331231169899,0.00994565723514362,0.0119437099366842
0.0512744945071741,-0.023036408072631,0.0347926370645989
-0.0488586966447285,-0.0399103983588704,0.0680257676745558
0.0212694933910244,0.0129661071301647,-0.0316710515765031
-0.0494531550190916,0.0673756750065274,0.0350037553904521
0.0074923631686401,-0.00995700236670649,0.065415246622522
0.0237179749769594,-0.0348261499667338,-0.0444492170120908
-0.0160085504977131,0.039480172353642,-0.0626768106094754
-0.0586062231737822,0.0313361328505837,0.0183182136439105
-0.00411026219352105,-0.0842011421542983,-0.0108738564375216
-0.00253474229276562,-0.00178975928995351,-0.016184340554303
0.00159184675664792,-0.0160282253424373,-0.0402461768930312
-0.00566309627551191,0.0283071761921085,0.0281277730949539
-0.0236036221098018,-0.0328569322962083,-0.0311985525741464
-0.00844043475663649,-0.0548234570397789,0.0144331855675537
-0.0332241017128696,0.0496916875684592,-0.00553539207849202
-0.0619074004380427,0.010185109127205,0.0490480188680213
0.0273276808671831,0.0148081718899848,-0.0452560688319792
-0.0185235662039116,-0.00936613244667606,0.0147042106301553
0.0379254704099299,0.0135579450061331,-0.00997511633247106
0.00988597381238354,0.0761061553969911,0.0201340953294029
-0.0362951880397471,0.0369087761851469,-0.00363493926879196
0.0689284775757756,0.00633497791436954,0.00414499003049879
0.00679934277121663,-0.0127891740728732,0.0248521629162559
-0.0172429552690842,-0.00962929564662438,-0.0126571511358976
-0.0364752008324705,0.0116393961254342,0.0248219367847554
-0.0246539552770007,-0.0333162858354502,0.00146365705391749
0.000616440616678426,0.0131202838809336,0.0480967557253748
-0.0246689045494305,-0.00501159298770042,-0.0318212423010112
0.0132934369397656,0.00395199683379832,-0.0157030960076151
0.0572001045153028,-0.0108756943418797,-0.0318160750176519
-0.0259134211924882,-0.0223333566086545,0.0602234160468009
-0.00828031459949519,-0.0438440820644761,-0.0155179821511709
-0.0536430283882001,0.0493360349139091,0.0106110100468118
-0.00064256713915839,-0.0595963418199017,0.0180514376915476
-0.0640605846670339,0.0090674454008734,-0.00255379124408527
-0.053075348472425,-0.042285190017851,-0.0335012513953586
0.000726055850036489,-0.0147800789163769,-0.0352132119449787
-0.0298966255054469,0.00164719131387825,0.0226331316543735
0.0260288677360874,0.0221327198766192,0.0542654141161112
-0.0339892419017709,-0.022830534883741,0.036908225911649
0.0651946824663623,-0.012672948274543,0.0478133654318147
-0.0165836383289267,-0.0163528638890495,0.0109447696245645
0.167053341201757,0.0696790084974613,0.00410363644684297
0.0592513323696975,-0.0155270630201146,-0.0202001573567188
-0.00820002862538471,-0.0253529095955072,-0.0533931285980462
-0.0342784085056292,0.050654017205208,-0.0247757900743693
0.0453621804382132,0.0296534444332401,0.00390065610010093
0.0166791304497127,-0.0226836806156359,-0.0957210748237177
0.0549326675874275,0.0418138685759413,-0.0311008213914472
-0.0222728959824596,-0.0378937111099075,0.0944006644749089
-0.00169607736740125,-0.0813150103245565,-0.0154431603367158
-0.0115938634655693,0.0190555665405963,-0.0102060463100494
-0.0061895510957326,0.0445832844141037,0.0105309755535402
0.0895141148145276,-0.00246674678344039,0.00278658052621017
0.0278353375885478,-0.0312877253141075,-0.0167521605055083
-0.0230629385103196,0.00390468864245985,-0.0131424853901257
0.127617951951343,-0.0538880786099132,-0.0231769854491359
-0.063936002761529,0.0244150634525393,0.0638365577771079
-0.0174404887632412,0.0210005917180591,0.0388759012475848
-0.0394069350320158,0.021918240673251,-0.0970784250180002
0.00162651126123639,0.0310040727742762,0.00130161227227843
0.0306347685286349,-0.0500775576947553,0.0279169038772924
-0.0159972575024,0.0272939819281551,-0.0119182894697327
-0.013901808866762,-0.00894877383747905,-0.0457585284093992
-0.00363656726042944,-0.0272183121437728,0.0514632285030424
-0.00965024858050428,0.0165866701047993,-0.00410276297559131
0.0446443767942345,-0.0176196788359887,-0.00442411602731507
0.00576595497076349,-0.0273527272855127,-0.0470736856064565
-0.02368822423634,-0.0320208886390341,-0.0289300604407394
0.0216473656921294,0.0525887135606283,-0.0146478255760692
0.0180542265521637,0.0314281531708596,-0.0649695275929079
0.0319201032985506,-0.0255799810488916,-0.00283470335392974
0.000435615892014574,0.0468857004278617,0.0175797283732438
0.0754095445392584,-0.00617164958719607,-0.106331875122733
-0.00632942952328619,0.0133714943451893,0.0112779920255932
-0.0395550354431538,0.035875973856583,0.0466742440754293
0.000648574197250526,-0.0822309043485887,0.00581086474603824
-0.00507843560703952,0.0388074186831368,0.0114941403503281
-0.013454989393994,0.0670732786928299,-0.0716648742961412
-0.0115349012352528,-0.0553221198246465,-0.11498815104013
-0.0149323429733561,-0.0243934392497966,-0.035151603910891
0.0186417942082657,-0.00611516584558235,0.0172397055933603
-0.00548936156973345,-0.0154028217041363,0.0139559151871935
0.0589782117539339,0.0515296368365771,0.00967617825636269
0.0142524962987444,0.0380321097938934,0.0155602849558347
-0.0393210107508091,-0.00649879760309546,0.00111033015815654
0.0470260178806692,0.0345648419282718,0.0299914249956744
-0.0398030993735006,-0.0668490839859145,0.011715956307653
0.00530554717944315,-0.00528301569866685,0.0236489407231765
-0.00652345479834382,-0.000774912685648638,0.000441651261517961
-0.0674173797738506,-0.0442804459051196,-0.0261668644848077
0.0130379109502408,0.0690622855926765,-0.00468281276455396
-0.0358469618581024,-0.0268896352523661,-0.00446044466447748
0.00863640787752512,-0.0996198199252185,0.0305186251304552
0.0222339036586798,-0.038393797086792,0.00631724664640576
0.00148561801265801,0.0290306768605219,0.00282615968487565
0.018086948136141,-0.0197302944447818,0.0609901334831623
0.000407877374106747,0.0527301432930517,-0.03797853332065
0.013378631380805,-0.0641631796410945,-0.00468239557576805
-0.0142159377507687,0.00743099023297422,-0.00750088604364996
-0.0353971876822658,0.0255791999107743,-0.0126959159312265
-0.0637755784172277,0.0115741790862497,-0.0165590595276324
-0.0110243751454564,-0.0460007720775649,-0.15816472660212
-0.0331179551520515,0.0140379060493179,0.00551872899934225
-0.0606712877269689,-0.00393498409146331,-0.0295261545665724
0.00841551168349763,-0.0251901210540127,0.0262901084683412
0.010969878592559,-0.0209258550832185,-0.0385848727041803
0.00824443458995644,0.0603252982815298,-0.00406279417529878
0.00929536115773444,0.0351931199677231,-0.0296958861094907
0.00553558788757413,0.0164997163279041,0.0319064585645937
-0.0924310421768513,-0.0194433836148659,-0.0620147099138451
0.0227888912448094,0.0170245789963531,0.0585758573201858
0.00396325423043542,0.00937175169163718,0.0194329840308707
-0.0244285164171895,0.0484041795833149,-0.0319033800405971
-0.0287694479836177,0.0125681932535531,-0.031210372187123
0.00353883515331199,-0.0124772451873044,-0.0422552061848993
0.0205371273023009,0.0297898397266035,0.0739044517055457
0.0768601319709692,-0.0165649325719783,0.01188395985673
-0.0601033681156039,-0.066426922134691,-0.066921973511007
0.00716683173186589,0.00620612356524569,0.00147296562726751
-0.0196727955291944,0.0381229110909836,-0.0285933448081365
0.0210581461987749,0.0141451279158186,0.0458311406135942
0.00707982583619771,0.0158196923964824,0.00569644937632321
-0.0500054610338713,0.0239642548833418,0.0183120415128937
0.00841272890954969,0.0825510946649457,-0.0156515974941815
-0.0264678293340723,0.0226745805979771,-0.00625979164585455
-0.0120793689622805,-0.0145357368288242,0.0103229949419395
-0.00603578815571651,-0.0092232582052878,-0.00805294043701155
-0.0302633152369286,0.0497827159268747,0.0265363036045556
-0.00620474143831268,-0.0122924173844583,0.00607636443759685
0.0868255527405699,-0.00555850025149185,0.0795799114970383
-0.0210434842143067,0.00767888622380225,0.0224923408109644
0.000886423671909164,-0.00354759361538903,0.0104303178636187
-0.00634157404472957,0.0665426259802668,-0.0202307901883308
-0.0143165407007659,-0.000410325067998873,-0.00190617308881663
0.0266780850583848,0.0156034879869802,0.0464660714550262
-0.00725312097118411,0.061241211091466,-0.00489800454560119
0.0119035881845268,0.0771995472013794,0.0277718167803066
0.0622261509581153,-0.0687737859617856,0.00951460218420208
-0.0614023851009892,0.0432357516182421,0.0232498189581942
0.0141525427839367,-0.00459869189358937,-0.0452865651688709
-0.0157902740127804,0.0229258474014949,0.0961776367449173
-0.0264693956491368,-0.014723510873987,0.0201863033340257
0.037947343215347,0.028823494908457,-0.0716196570367057
-0.0464424507807795,0.0544179406747186,-0.0120509197555457
0.0089548049967082,0.0169811454915477,0.0288880849038183
-0.00812795506808028,0.0421774950757734,0.0388173403719666
-0.0345147928533225,-0.04600200674928,-0.00474443447058182
0.0452613192354548,0.0197845064328936,0.00552393785024408
0.0364078886610482,-0.00626924046574701,0.00827951813337569
-0.0334218545419859,-0.0285944176086792,0.0389416393075754
0.0269241366387006,-0.0302881302365104,-0.0300691240229685
-0.0520333808536599,0.0278130372313891,0.0191583802455554
0.0329822891621613,0.00235534251514746,0.0439154924105363
-0.0311263713681936,0.0449114818540679,0.0715919990720694
-0.0644968525732904,-0.0063535297473688,0.016559279245506
0.0230184401834724,-0.0341255712823657,-0.000168960315623856
-0.00694070392338619,0.0251582856528544,-0.0588348920270672
0.0650297206671384,0.0299663981939318,-0.000688865138193495
0.0239664314093718,0.0046045411979429,0.0521849918079654
-0.00290309718268922,-0.0108132484093431,0.0492767533460259
0.00835208657108866,-0.0143796618021359,-0.00404252242033587
-0.0148773860034837,-0.0301501160820211,0.0084989915300967
-0.0304380507870165,-0.0121976991320221,-0.0141282090118169
0.0158679141403686,-0.0391121087721021,-0.0623007418128231
-0.000286797686454121,0.0365746020536178,0.0102739631017408
-0.0146047637686328,-0.0074554947079174,-0.0221363330691196
-0.0677930697947186,-0.156563575958721,-0.0284923159391803
-0.0130085249738784,-0.0553819711256266,-0.0293602827390627
0.0708600678647995,-0.0550369033387152,-0.00318406980488914
0.0117691425003412,0.00732446627735454,-0.00264662515745688
-0.0377735538973054,-0.0201362490823142,-0.00792997577811527
0.0437266363698957,-0.0420377057959698,0.0706435557569108
0.0339438225364752,-0.0383147463226353,-0.0352017118447522
0.000433465694321455,-0.0465212787924849,0.0139531752898039
-0.0280420738355849,-0.00129928252702555,0.00803208103592745
-0.00867759236388066,0.0323813791214153,-0.0482561384839177
-0.0182347402217858,0.0442948626479623,-0.0213867378878765
-0.048314032601815,-0.0324462667098678,0.0185444800403608
0.0629371924138012,0.0100373919692148,-0.0120177857983124
0.044418208914049,0.0115901604094984,-0.0127641054626174
0.0140022215059383,-0.000794918324258709,-0.0131664809947691
0.00264608741319194,0.0239636370951122,-0.00890808201479931
-0.037717703004641,0.0124111860760302,-0.00584274278968455
-0.00831228884282484,0.0412341017666999,-0.00573092816820076
0.0266315958607093,-0.0376334951400646,-0.0218281483106509
0.0625186884048605,0.0693825702885393,0.0648865146570882
-0.0113592677251959,0.0454622563346938,-0.0450705576963057
-0.0500294820916937,-0.0246007984585645,-0.0696460475441285
-0.000476316647095465,-0.0118071055375646,-0.0168333059415727
0.0135321336491001,0.000533758018274488,0.00472464216244325
0.0365956678720232,-0.0620219257807629,-0.0440916244109849
-0.00788647332074049,-0.0295256554866271,0.00607255859371547
-0.0243665198265876,-0.0785005432743108,-0.0176456597487246
0.0144000705252814,-0.0387659867054521,0.0335188555185885
-0.0025430072163406,0.0175778954358631,0.0821878294393837
0.0105317069895878,-0.0117792474085258,-0.0378823513194251
0.0503611324407794,-0.0386851597389184,0.00357076997414807
-0.0774015134115945,0.0266800396096899,0.0138947789666896
0.0290774626453078,0.0380253853556833,-0.0102231305347423
-0.0177719012824919,-0.034358658069919,0.025508909712625
-0.00227769612814011,0.0169351572444038,0.0175294146375563
0.0109096006587184,0.0646469394927972,-0.00821954074187314
-0.007642435847179,0.00678518565540176,0.0782802077050534
0.00832645069291593,0.0460106745717125,0.0234457182263637
-0.0618770150327846,0.0114475231444631,0.0655851240519196
-0.00777707799382743,0.0363233134794531,-0.00607215858572605
0.0725450473340951,0.0359109477368028,-0.047849846249702
-0.0840062678291263,-0.0236973238135239,0.0310871333515802
-0.00167688760546558,0.0494007718590566,0.0679000855754454
0.00571969464976729,-0.00927074968138797,0.0189425913045297
0.0226567874958548,0.0430663208825758,0.0259150459548076
0.0480031452188033,-0.0548389225598811,-0.0447714404350863
-0.0079056343933594,-0.00526614315558815,0.0427731956599354
-0.0189640569225816,0.009325641834797,0.01095399091044
0.0340643901594729,-0.0689587989585949,0.0111356375883701
-0.0396700048443005,-0.0207492873386219,-0.0555389932200606
0.00415900444018913,0.0409529649268633,0.0105385780236756
-0.0881351453441042,-0.042799311577133,0.0388752050053635
-0.0229214995395801,0.000814569770628548,-0.0230649352915052
-0.0745912681333054,0.00122447878555676,0.011265298500867
-0.0258998174314255,-0.000801223668055129,-0.00913355211892652
-0.0425949647770082,-0.0121612599865311,-0.0137099052195197
-0.0357702779192925,0.0194609907354716,0.0305065425298053
0.0176495715604923,0.0199199908453024,-0.0242007303249558
-0.0370359811349575,-0.00276326991411532,-0.0034908932878962
0.00305348951689605,-0.103488898930624,0.056361624130972
-0.0609553098142771,-0.000431798231343095,-0.0617617441451248
0.000573328015407937,0.0017610003253884,-0.0711926588801423
0.0138199535314949,0.0520814401039364,-0.017488133560975
-0.00340302533698944,-0.0575228253175936,0.0252977225807783
0.0422422277609302,-0.0547485943003124,0.042290732679953
0.00406043061253643,0.0546406932031997,0.00680616528150857
-0.00454940607975537,-0.0114743904714957,0.0509723759469106
-0.0190159845544819,0.0528111418663588,-0.00566018270888696
-0.0298808541222019,0.0614672093761611,-0.0743089921527275
0.0391047051187211,0.0321633266380532,-0.0384416892434196
0.072591854092437,0.0323685040898498,0.0700748607196403
-0.0430301071033014,0.0170011224974358,0.02638290878153
0.0523433523815557,0.0128120003000128,0.0314531511863894
0.0184116118981482,-0.0146199097728612,0.0973526589788341
-0.0118059678749483,0.0188838072711659,0.0183158767226625
0.00311012615854511,0.0671494447146561,-0.0191400975217505
0.0651914282254862,-0.0112663886074545,-0.0137483809354487
0.00961138334008352,-0.00652511887458626,0.00721494719665572
-0.0736291795703325,-0.0112314370531103,0.000455378129339046
0.0247697680100994,0.0162154994418696,0.0209268197190224
0.0259703048954492,0.0122255018064716,-0.00120169956322008
0.0165221321432824,-0.0310074707994822,0.0540168894079502
-0.0320513044861493,-0.0659034434710059,0.0203415480192022
0.0223496603045105,-0.0549506779948803,-0.0252952656348011
0.0308760289469135,0.0137877566396553,-0.0143231717204775
0.0430969853090155,0.00398036601181262,0.0505910007106474
-0.0375849694275215,0.0629331987691024,0.0382102872028897
-0.0153116731947474,0.0301274183155554,0.0153240699992303
0.00778969166482318,0.0148996578234608,0.00326749580301655
0.0362860146603859,-0.0225204485451022,0.0562334881038998
0.0424653684044342,-0.0494421387771969,0.0195765277879928
-0.0784720309839504,0.0169501365898796,0.0382231546503422
-0.0301314315279536,0.0402630971293553,0.0389869223388872
-0.00483626161556117,-0.0100382962300386,0.0400057628537017
-0.0940802324042521,-0.0273953773915679,0.00813461168889584
-0.0401692692202948,-0.0731525451288582,-0.0231556135087408
0.0508243659932479,-0.0231269642506967,-0.0101207384799107
0.00368109997041655,0.043353226879723,0.0101978475467417
0.0264123706727757,-0.0333463954087083,0.00947483926318371
0.00912451180308382,-0.0139392356691637,0.00423729080044943
-0.018533501569765,0.0159756176269529,0.02469822445888
0.0149518345190019,-0.0358494843507436,0.0121609584041983
0.0278470531820793,-0.0116517643117428,0.0124735225860049
-0.0249235201401787,-0.0267156875034835,-0.0344676301440465
-0.0489164888031524,-0.0753294786727346,-0.005787241542209
-0.016275979976518,-0.0362859223411519,0.00403697455741781
-0.0455220792305955,-0.0126962952877738,0.00415474928240389
-0.0140377893575625,-0.0514240387857618,-0.0700755729506172
-0.00256054328872948,-0.00128234172400177,0.0331652709042208
-0.0161799634426896,-0.0320713031761675,0.0131106784055041
0.029822128875849,-0.0425724464361475,0.043375210197264
0.0493730427999916,-0.0323156222155652,0.00687658600624863
0.0298040967751483,-0.00628482372049743,0.0411142963308102
-0.00270884483500664,0.00683895776806841,-0.00961201282821778
-0.0475322327695166,0.0533587568948536,-0.107510056907522
-0.00604203547135962,0.00884231175104189,-0.00391687834156496
0.0708019854348951,-0.0299576659987439,-0.0032844583816084
0.0155506981623537,-0.000582692524708439,0.0415599334247581
-0.0188470601807121,-0.00414167754747846,-0.00268974073053951
0.0108671418474731,0.0405555667852579,-0.01064764429941
-0.0110928375888627,0.0270124317088125,0.00655030078847485
0.00774661284915817,0.0286678157555092,0.00460839686185621
-0.00895319209308287,0.0412726932394242,0.0373150519864128
0.0259078673706066,0.00363944073651234,0.00904004792242363
0.00183007560252346,0.0148385690757034,0.0131136525982477
-0.0144020559683261,0.0552779033964477,-0.0196860288013916
0.0465872994614398,-0.0964463336516301,-0.0109746920868466
0.00706647696302598,0.00285499326903293,0.03053908623707
0.00298217995353689,-0.0442462857005008,0.0278600865291248
-0.0252527834810493,-0.0411051732070389,-0.00712386093332007
0.0268459976111473,0.00144205040748757,0.0439085554533944
0.0441237831139686,0.00455362499921885,0.0346287946834772
-0.037325555226977,0.00692590821399636,0.0262352248386544
0.0531735444154994,0.0377321871437714,-0.0441049846199888
-0.0451916883557978,0.0207218622804042,0.0206370066265861
0.0231674281316443,0.0210512507127965,-0.0278248831634052
0.0989156319248926,0.0206001059910935,0.0382418397215851
-0.00149774041003218,-0.0333604339977082,-0.0087306106391366
0.0276023647006889,-0.0289989372500052,0.00135700907202285
0.0503253871623259,-0.0179320823533489,0.0348280819770407
0.0327126990946246,-0.0130734834631743,-0.0403061703156981
0.0437955235720587,-0.00979735993968911,-0.0104143717133922
-0.0391240884056671,-0.00250061281823361,0.0158004512493966
-0.0726517061500344,-0.0396225993433381,0.00755689135983378
0.00473265760883113,-0.0188151845875523,-0.0408079172240337
0.0414852505687967,0.0206021071599028,0.0502644292338262
-0.0282212129079686,-0.00379771487008684,0.0391214761546734
0.0104791431426118,-0.0146755231330956,0.0235840033338796
0.00572929210581596,-0.0201962955043804,-0.0633391026282267
-0.0622033106867098,0.0486128685695091,-0.0498857518236612
-0.024775210171148,0.027679637787218,0.0109913635230406
-0.00333213732132298,0.00536299401054152,-0.0230526221536173
-0.0618978640517682,0.0244543279323795,-0.0540024861821307
0.113368266241409,0.0200788583680496,-0.00838242397314848
-0.00350512012093442,-0.0218640064515613,-0.0335479473708029
0.0392863215938151,-0.00199970909123059,0.00770409206938494
0.00839647820058131,-0.0179658599252575,0.0292816085092149
-0.0335911004247914,-0.0636943149109159,-0.0333866833657978
0.0205367257691969,0.069577661836267,-0.0585194648982663
0.0450675294148917,-0.0131895674155717,-0.0614849741112187
0.0197203166662671,-0.0583655295945629,-0.0243425793786215
-0.0333508450420631,-0.00311995025077583,0.0548232102402597
0.0193702779484074,0.040313629010933,0.000900271316092494
0.00370584667831364,-0.0665176835277119,-0.0847407300236536
-0.00264335729035664,0.0085541829800625,0.00785708696314102
-0.0170224524750351,0.0336627279018731,0.0281732175945948
0.00899778821196251,0.0367597617798942,-0.0070834208727194
0.0462720048655411,-0.00240579849592903,0.00517068315749039
0.0128461979460349,0.0322890060579514,0.00812600491285016
-0.0392161811019198,-0.0513972361420966,0.0208347552133588
-0.0238401835322994,-0.0173723191892102,-0.0452924805047279
-0.0339500618865746,0.0104262853319776,0.00442836035069361
0.0194402655142394,0.0196723967903225,-0.0833152067448097
0.037742035059088,-0.0452339186565898,0.0286151552915254
0.0123601410469514,-0.0801350056397191,-0.0060365361432255
-0.0357254201771393,-0.0155659797233157,-0.012390356665775
0.0355958633682655,0.0105806196225301,0.0646153633862072
0.0296114825527805,0.0407624758426692,-0.0368296004266854
0.0330322035731316,-0.0168672266015048,-0.000149221557560336
0.00046227528997661,-0.0135695262980303,0.0649401190462841
0.0237035397713582,-0.0271814371379561,0.021182586306192
0.0417333715961962,-0.00287773103133432,0.031779878327547
-0.0195567156682157,-0.0165260406308954,0.0065299001370443
-0.0602813239397566,-0.0380949140787527,0.12269478450987
-0.033309988987064,-0.0529886886223851,0.0107878981115629
-0.0888418279133552,0.0103305284594561,0.111947995943924
-0.0205991008909708,0.0248659265166458,-0.0156584438968698
0.03105659819791,-0.044295233276035,-0.00383491388142004
-0.0582930666369351,-0.0742478587492278,-0.0066271434585381
-0.0565176228139084,0.0308957213149148,0.0629459268222434
0.0479558112356981,-0.00391025009500356,-0.00764177358154294
0.0144635631273668,-0.00554693409346219,0.018481563720704
0.0108646222070583,0.00559316462111681,0.0588622551846359
0.0523514771539583,-0.00275681627083807,0.00712639013474099
0.045184654739625,0.0192654024117463,-0.00347890396744643
-0.0272766729478941,-0.0290481500909608,-0.0073818790853431
-0.0573897899814432,-0.0290690674844067,0.0526086650279722
-0.0131601449437775,0.019363538458851,-0.0691156701793989
-0.137410755157761,-0.0972164098609231,-0.00353612364985889
-0.0406162797703259,-0.0381143564535281,-0.0284658428260669
0.0663613974205149,0.0221241185620747,-0.0619044321114894
0.00975324101611652,-0.0671867343239682,-0.00532526203002681
0.0830938480501616,-0.101849360929011,-0.0691121713486315
-0.0481332648794928,-0.00114129241074223,-0.00590330889603807
0.0204921709821762,-0.0617476691446919,-0.0329772717768729
0.0126222242148515,0.0370975292088223,-0.0134783699030568
0.0150963282967366,-0.00762658361277269,0.096089851075894
0.00780959911134826,0.0821261231585793,0.112377426876655
-0.00655463702852399,-0.01035141842394,-0.0140015606130741
-0.00238054507951491,-0.0884296407713071,-0.0454105073297546
-0.0391306030288022,0.0186929986152727,0.0226064781392011
0.00781503747216583,0.0326832570891417,0.0646611668724626
-0.0154500982812908,-0.0220020441729284,-0.0512122269219975
-0.0343085456167989,0.0669018737844621,-0.0183724193468636
-0.00815256870931103,-0.0727342138357694,-0.0136773224055511
0.0518599466053698,-0.0447859294404305,-0.00588217330789453
-0.0252167027196224,0.00521034572245782,-0.0145645069307139
-0.053288330377568,0.0695156409448263,-0.0294417239436923
-0.0507632786077746,0.0411673194876093,-0.0551284650715633
-0.0397179230699386,-0.00683463155162023,-0.0827762556901694
0.0141436587313279,-0.00973982343445989,-0.0182687335380792
0.0113405142246409,0.0169995359167249,-0.0204260865414219
-0.0617091141646862,0.0124283034694972,-0.0195306039895043
-0.0249818178817618,-0.0243619729880393,0.00209642292793302
0.0216581361213636,-0.0175414389368673,0.0287673511394752
0.0101503174422727,-1.85636358918662e-05,0.0258996077775516
-0.00613491286416323,-0.0342153868642258,-0.0049770704773443
-0.0591604438250509,-0.0562141183686394,0.0205681993421639
-0.0138540053472953,0.0209027714310068,0.0392235636804553
-0.016422601490373,0.00988538350501772,-0.036038815284348
0.0573117657771521,-0.00949139701254279,-0.0382565612138802
0.0162225808923088,-0.00979404788255456,-0.0379828394544917
-0.0772451980290261,-0.113293230259343,0.00917626016067569
-0.0292489611792696,0.04964205160231,-0.00445818473940618
-0.00355213166773599,0.00259522703259657,0.0528121037951109
-0.0132433892596284,-0.0707159640677431,-0.0323133753602147
0.0304504976249739,-0.0118184762791091,0.0136951402973408
0.0422526343413089,-0.0138444741353004,-0.0361072345562313
0.0144295267437017,0.00160418452936806,-0.00973359275076879
0.0064856528760765,-0.0249369761907438,-0.0115924261334947
-0.00495082296632558,0.0286181529670876,-0.0286714325915405
-0.053638483824775,0.00409365278645962,0.0404390323896208
-0.00175379702381995,0.0393737678655485,0.038215374303172
0.0761896471752087,0.0208976931451266,0.0178230425874478
-0.0527734721882329,0.0054659656971181,0.00572266086602502
-0.0096248803971819,-0.0219401598758153,-0.0486209973104262
0.0933578215302521,-0.00604285649785952,-0.0141704421471088
0.0788875561459271,-0.0178354452948852,-0.0517123803913484
-0.00804331170596628,-0.0322453804941872,0.0340679205588432
-0.0492723130817089,0.036200302470644,0.0183263122076258
-0.0220803827294433,0.000992720654707957,0.0306735947076023
0.0102287363583097,0.102426402889962,0.0303432418444884
-0.0679296391033941,-0.00307328290260556,0.0164880646012013
-0.0317642581978291,0.00330009621731575,0.0585517890521261
0.00427114111803817,-0.00665566375248849,-0.0129037160485317
-0.00297667187921494,-0.0640962400016837,4.41564998854282e-06
0.018422820220046,-0.0104516901580379,0.0592247210116482
-0.0118310228644672,-0.0268221299565756,0.0614129544859219
0.0499600456045012,-0.0402309765228478,0.00577997508518013
0.0222961854183777,0.0125961478199984,-0.00147639589041487
-0.026349848815821,0.000436752314386557,-0.0178381536183601
0.00216059496753246,-0.00640576639700878,0.0274517084437418
0.0151903426713308,-0.0181433320408797,0.0117296140427563
-0.0377581005100812,-0.0649703011431073,0.00445872672561415
0.0731254402116661,0.0136306420382462,-0.0720425164390252
0.0245247075056997,0.0482833807107632,0.0151162152828666
0.00749827339072867,-0.0234981932427424,0.0210697161641882
-0.0127245728969899,0.00777212120423887,0.0473889437807099
0.0113048630023919,-0.00246393251361532,-0.00748549383552319
0.0164464455409846,-0.0399330359438614,-0.0148682754102536
-0.0242283979247021,0.0307757748944598,-0.0136578691761196
0.00998900367417199,-0.0369938204357279,-0.0185268880828245
-0.0671684982453532,-0.0218009991484568,0.0322360258038276
0.0104898796175029,-0.00832304419765903,-0.0326837331468919
-0.00421309649334894,-0.0306290324786888,0.0026661760535172
0.0194813705552259,-0.0350643159736027,0.00793391256765275
-0.0366927084175335,0.0540884190867499,-0.0140080881009315
-0.0157072356177299,0.0237473705843802,0.0170423313063709
0.0230935170123137,0.0322382544676464,-0.0452898211329646
-0.0388016454819015,0.0232650655052906,-0.0345292704100882
0.011606809773063,0.0316610779133231,-0.0186543435606147
-0.00742276798506503,0.048017433576812,0.00356163094608342
-0.0206478549960738,0.00622081267602696,-0.041231897630696
0.02257438742005,-0.0227651268257383,0.0155296982863767
-0.00260553952038456,-0.0151281638452818,-0.0111444149550338
0.0709886719972755,0.047414783804744,0.0665805193656607
0.00824036817371346,0.0049944676131578,0.0359446273509385
0.0377082983953544,0.0269429718412513,-0.0864849883766418
-0.0478733330650595,-0.0130823188788606,-0.00443848243544668
0.0538847100352605,0.0330220295650597,-0.000347254051863755
-0.013552057258396,-0.0099349739831299,0.0693251156342579
-0.0386940275222595,0.0366301659462345,-0.011589839611451
-0.00465747894269335,0.0194141001618725,0.0232900906421207
-0.0485953673472392,-0.0138811312097767,0.00657012443947431
0.0224918541053961,0.0260196138842834,0.00831923921947864
0.0126107970353385,0.0114142504140967,0.0420954547798914
-0.015696610873695,-0.0628496360293219,-0.0259163127778933
-0.00749016343569753,-0.0253318998807475,0.0459695823490315
-0.0290035950992995,-0.0130228243193146,-0.0201784716347743
-0.00256353553573735,-0.0861485511462725,0.0249979765966132
0.0159179862132242,0.0666910124870673,0.0861833318077936
0.0780784992933109,-0.00145810511747968,0.0610339869621154
0.0223042207959449,0.0115786485620164,0.00757975396125177
-0.0107373846183056,-0.0110155525588907,-0.0191406402928155
0.0418247042215479,-0.00470482283038742,0.0926553818211633
0.0131427764273013,-0.0466820453127882,-0.0463444949212631
0.0056950216473064,-0.00512377429182548,-0.00164673923372737
0.0214778765862893,-0.0230711933993859,0.0139403449973192
0.0359296950201976,0.0176281050328829,-0.0142627655041986
-0.0505291743082359,-0.0270641615319219,-0.00141272582065521
-0.0679720079223458,-0.029636653827824,0.0524677054824144
-0.0262512306258026,0.0204253956366925,-0.0431012557111641
0.00715031452105744,-0.0552896951419394,-0.0343377264961184
0.00507567646473961,-0.0387849241551066,-0.0143774173519783
0.0162048490228139,-0.0118175900354619,0.0804851192830554
-0.0289792842151814,0.0368741775562277,-0.0139640084322479
0.0348113183058397,-0.0146407728314578,-0.0433995548586402
-0.0311491893725897,-0.0621048415720872,-0.0256776184965326
0.00760650941583846,-0.00457765250686745,0.0277862338505536
-0.00129796509782099,0.0412430202738696,-0.0465201731010785
0.0313946959043177,-0.119457797391176,-0.0131032019977688
0.00283237743850823,-0.05846600621038,0.0840789749480254
0.0418610318739298,0.0189797661610972,-0.0145795966477739
0.0348518176945474,0.0176300739159867,-0.0445678754881456
-0.0180082069075246,-0.0546736887234191,0.0440868013301207
-0.0421982663592674,-0.0805488406192227,0.028922978528921
0.0251365143299367,-0.00492888987103357,-0.00504815806270453
0.0749163591916802,0.0737135204693343,0.000111664164629821
0.0360307060518494,0.0294685912123175,-0.0299758595309653
0.00764377557583273,-0.0254998301516211,0.0639310460502716
-0.0332614682648498,0.0320980025756802,0.0100172682799501
0.0380661548645924,-0.104876461991452,0.000645503109069301
-0.0323645200673515,0.0394290209984901,0.0602392910924802
-0.0140697909802995,-0.0557762200512465,-0.059831559622824
0.0374606013202485,-0.00471584459614897,0.0150629742802482
-0.0560527393607947,0.0445656789007768,-0.0700317294755233
-0.0668437950968301,-0.00652347709393272,-0.0375894993329314
-0.0505025789169722,-0.011105851403133,-0.00778880510639982
-0.00410413359251569,0.0056811359501352,-0.0672364475163694
0.0220568656696856,-0.0051335690626322,-0.0241195330060474
-0.0393440378435339,-0.00265098730450719,-0.0282245093186567
0.0148624615384395,0.0507667717787746,-0.0461205408604676
-0.0256227391218622,-0.0341415643245951,0.0492204753303033
-0.00373662484576986,-0.084188225608224,-0.0641667822872713
-0.00322587697624421,-0.0191042860951928,-0.020431102689951
-0.0204572275029884,-0.0416241045346442,-0.0877655539789187
0.0815985445945072,0.0106059516273961,-0.021136455780035
0.0719360719958421,0.0137472524481526,-0.0505683693780178
-0.00431672335601996,0.018828326890084,0.0411433265587962
-0.0182377358555974,0.0707043840248825,-0.0435666977325654
0.0301938828848544,-0.0134467018064214,0.0304156542540113
0.0129895696616282,0.0318923776199614,-0.0429815450217818
-0.026219804853478,0.0159797945977349,0.00747424593329626
0.0621197805227974,0.0293313749813995,-0.0399169071643698
0.0206607472200988,-0.0728477026442006,0.0201580454060467
-0.0326429432951568,0.0144859730995245,0.073947425121015
0.036961669350672,-0.0807667236635026,0.0501636413238914
0.0295117597393826,-0.0591533942842479,0.0452368691114268
-0.00661553964690298,0.085094225329969,0.0692350057157065
0.00690510615975545,-0.019810254631262,0.0242851157775855
-0.0577635827795333,0.0484101050505376,-0.0269496903057654
0.0262774769505544,0.00227075832744122,-0.0521031313084548
-0.0480831237484446,0.0126202258594149,0.012049235652305
0.011319290812003,0.00795894158600352,-0.0513551724521738
-0.0669922360999587,-0.00602336968335759,0.00423134495680322
0.000345428712307548,0.0746000214580513,-0.0265383529777537
0.0128257649121484,0.032854542835555,0.0802478520475311
0.0510989897111992,-0.0599579493925105,-0.048203621149408
0.00586959494868866,0.0201193711859717,-0.000766555818889153
0.0351168984754161,-0.0166156450325888,0.014182211541353
0.0882750562739003,-0.00951783419739261,-0.027416030824965
0.0340090609038363,-0.0207969893569591,-0.0339545431890296
0.0133488028172842,-0.016046995559523,0.0631450403961599
0.0550996122485601,-0.0466394835177504,-0.0187747945465708
-0.0204550337197782,-0.0685063557664098,0.0345261079228691
-0.0247391316652179,-0.073023756643865,-0.0252570842903716
0.0121463888674839,-0.0254400007964221,-0.0178074361306838
-0.00941171228009693,0.0334758979619214,-0.0635824452340537
0.00849847708117846,0.0123072774893025,0.0229866377007948
0.030153792180876,-0.00645167426669324,0.00332799643914294
0.0368453787694418,0.0121056119258539,0.0121152941581292
0.0137906055954663,0.00704217805213869,0.0435420722694753
0.00520466496398151,-0.0721692326910679,0.0083225788459782
-0.0444147092252041,0.0174182206428541,-0.00989018451145052
-0.0167616645907765,-0.0820086543606353,-0.0600281624831311
0.0261592337857154,-0.0639310034577928,0.0675907377847272
0.0174179223839326,0.0321394643747914,0.0322291289948651
-0.0641296914460897,-0.0319232450751805,-0.0108148167738407
-0.0643719786131113,0.0308754618117814,0.0571339509851013
0.0424942128340331,-0.0144426496261695,0.063416161396962
0.000193698823808208,0.0158266676203083,0.0555402286482395
0.0453885989930666,0.0153057775141847,0.0247832104611492
-0.0295663578462252,-0.0206185730977216,-0.01025482982939
-0.0031533328861808,-0.0127668774348806,0.0243534864720876
-0.0133931838521951,-0.00851408202869164,-0.0829960458119436
-0.00035546860980451,0.00781737516397302,0.0315641453556011
-0.0146433456122113,0.0102331397901985,0.0346586719245179
0.044211722178972,-0.00331151881117983,-0.0119152854674487
0.0287155068047382,-0.0474427103932389,-0.0327977336382078
-0.0268999192487984,0.0321931486396537,0.0120456513113633
-0.0281926273460339,0.00741365374227132,-0.0255756138950879
0.00139968299636167,-0.00817739199095524,0.0597739342311487
-0.0104741102711141,0.046518851325687,-0.067863690258229
-0.0299765540375392,-0.0440433483438217,-0.00463994642162535
0.00423539287614783,0.0199444735301099,0.0303127725688743
0.0237047375807765,0.0135841947250193,-0.000762435782644344
0.0623634978231871,-0.0617361106094936,0.0194447965865269
0.0113085582515463,0.00200127465137535,-0.00158548440418227
-0.0673533844745083,-0.0126908474771622,-0.00695459673264565
0.000341283141884197,0.00379546669896613,-0.0799659797097346
-0.0239527037490351,0.00351645687430713,0.0470402192648906
0.0257446152705988,-0.0202957540690424,-0.00968755491822815
0.0280475589970379,-0.0655299645848997,0.00167962612808459
-0.0253699871792488,0.0123711194057404,-0.0234682923532094
0.056035296395568,0.00273569265273887,0.00431822530960613
0.00495317057823974,-0.0477564601949882,-0.0528727357297432
0.00571825006404136,-0.0155687194802376,0.0706005515337608
-0.0610671336244698,-0.0407901424377314,-0.0225234929131268
-0.0844354625307092,-0.0258658192454455,-0.0154499335755134
-0.0205637184453992,0.00627259036414185,-0.00670993997105028
-0.0257021405997774,0.0801058971036672,0.053594503206695
0.0591103657196064,0.050464414238908,0.0278058907869702
-0.027676594656609,-0.0684129815976688,-0.0341805088932257
0.0299066044261018,0.0249705622902745,0.0284907752822693
-0.0282949311867845,-0.00434485723448141,-0.00208299251133942
0.0133853339616972,-0.034007405313225,-0.0291090617864441
0.0192838503322964,0.0257102409374724,-0.0461556741228399
0.0319819633017133,-0.0572363997769009,-0.0231764316877237
-0.0731105557993518,-0.00456648190375997,0.041745415437162
-0.072682635882244,-0.0242247240781629,-0.00830400737444481
-0.00186278754143065,0.0254729763870092,0.00150062447363958
-0.0208616041790884,-0.024577747410553,-0.0407244618024011
-0.0128001371629269,0.0500485200811324,0.0411178329571211
-0.0749198235773237,0.0371267295370217,0.0119411347055998
0.0352833182806984,-0.0766681832259976,0.0110674948908022
-0.00490014319928728,0.00401519683528162,0.0604722432866888
0.0719415758354362,-0.0292288022045523,0.0333758411369672
-0.017482274484196,0.00106300934416442,0.0202485748324734
-0.0213699448566689,-0.00944033508260245,-0.013886303063991
-0.00259117580330158,-0.0145544466994598,0.043110200973051
0.0523779754135774,0.0480511932617786,0.0704037028372025
-0.121552963658894,0.022467355905038,-0.00857403650750499
-0.0446078828216152,-0.0247610238678185,-0.0103989773610467
0.0139962107601476,0.0334228790570409,0.0100651036767547
0.00653847060776752,0.0504216877450743,-0.0559094843761848
0.0424521532234572,0.0147104908064691,-0.00717838532871662
0.00499230934307437,0.0347677357783059,-0.0895381177672969
0.00709913864735234,-0.0139428400836874,0.0101112657989966
0.00271705486119531,0.0227647812971056,0.00439839042950896
-0.0211422603991521,0.00748470399201234,-0.0280616484871418
-0.0108318268984628,-0.0498416511743583,-0.00565972589867481
-0.0170347040461255,-0.0222957665098953,0.0115511569149151
-0.00440290919638819,0.0424581137862313,0.0467459438882893
-0.0383445528657868,0.0891404984941295,-0.0625113349177816
-0.0255324069342294,-0.000922489328385789,0.0393943938401368
-0.0304094249748167,0.033560568549335,-0.0443582478492281
-0.064783504016925,0.0188935669405882,-0.0410810276854412
0.0436771113023063,0.00617584136878757,-0.0275322229507625
0.00883568047979594,-0.0239402645549216,0.0556538836955546
-0.0128255690577653,-0.00305792272703131,-0.00939889876423461
0.0524986469320081,0.025950629228466,-0.057350121140785
-0.0346982161636384,0.0290438751474121,-0.0171839996243454
0.0366626612135803,-0.0183396017251566,-0.00194175325726742
-0.0239091522418392,-0.000331806297127923,0.031256076257452
-0.0254080633017768,0.0406223324240474,0.00769777418940158
0.0182091888770581,-0.0444475430673583,0.0548598323885322
-0.0292788129109448,-0.0815774677596384,0.0758858920345925
0.0231575200662719,-0.0141956713494751,0.0135658191017219
-0.0114728238458131,0.0602920897492523,-0.0161624555002959
0.0820353011692175,-0.048218455043932,0.000647737862277592
-0.011064140397902,0.0112949238748009,-0.0754444239490395
0.00468469493667256,0.0419460517697016,-0.0555113389114945
-0.0196628112122839,-0.00054551225048638,0.00249246757979164
0.0706620667636287,0.0126784728672274,0.0639412632442485
-0.0451948102890154,-0.0220817694910164,0.0407472674089782
0.0130713094604617,-0.0225088303389704,-0.0608448085657555
-0.00772365988787449,0.00181261968712831,-0.0123367971271929
0.00914021373066154,0.00206365735165326,-0.00577303287298314
0.00224904892201272,-0.0129261899593331,0.0418449873264558
0.0157342948988675,0.0345583825642803,-0.0162937967076565
0.0158951732063021,-0.00890392058777878,-0.0217799416885973
0.0319203694992731,0.0515020834496119,-0.0337328557984071
0.0176436966645843,-0.029093353546667,-0.0600580885515773
0.0372059741646488,-0.00108029540562216,-0.0074796551987581
0.0281801048074651,-0.0463472071507343,-0.00567293914486733
-0.0350918893071271,0.0230495309727564,0.061205081358466
0.099177041560386,0.0786582116309397,-0.0417115289124023
-0.0410112960988034,-0.0322614973343749,0.0382656703367852
-0.0453345010380316,-0.0187734553463693,0.0309670991864374
0.0165362157239813,-0.00355367994996714,-0.0487880239003315
0.0666267622737146,-0.047400190663737,0.000488902991770346
0.0140428844136559,0.0399753536080625,0.00376218166657083
-0.0117716745145011,-0.0251548284311737,0.0186331235922293
0.0215006965418519,-0.00447042954228272,-0.0333404633273439
-0.0356286188321884,-0.0623085481070372,-0.023539727120978
-0.0325159982816338,-0.0106146649585477,0.0467119538068262
-0.0296106053981339,-0.0232189401841161,-0.0142191538411675
-0.025110363432947,0.0475196703737748,0.00156778454143799
-0.00868931398021533,-0.0861347359617397,0.00571307437743029
0.00733038998113567,-0.06581696604069,0.00857542303329664
-0.0557634544942061,-0.0169071989470321,0.051877379285956
0.0163683310224831,-0.000160735492288677,-0.0251627767895851
-0.0204668447998818,0.00812791496104803,0.0683057179234914
0.0484129498245385,0.0163428222962927,0.0140590509536705
-0.0208459566469087,0.045713727952629,-0.00666282446854075
0.0411839985228468,0.0736967854818762,0.0620756114378663
0.0172845863881124,0.0533055458349805,-0.0322630261388685
-0.0149748252720674,0.0247843005750517,-0.00525900888892117
-0.0127279300123208,-0.0238783615789518,-0.0151278273062021
0.0124080611018464,0.00338327727671356,0.112702897833675
0.0372836189217509,-0.0149831491056139,0.0357083307632231
0.0200942221469333,-0.000126680593023232,0.0185457871855522
0.0408710109108169,-0.0148472963735486,-0.0498222129868535
-0.0273100888447189,0.0109084578874956,-0.03373787428589
-0.0350811549486876,0.00779841620363986,-0.00529221824167925
-0.0067263103958301,0.0485574649963291,-0.0239432964155106
0.031161873370949,0.00181769251360706,-0.0793041131623738
-0.105958232609626,0.0216127037141767,-0.00606222144187585
0.00632381507123259,0.0557642412860334,-0.0132842700816703
-0.0539916701691589,-0.0452003213058962,-0.0312738322447575
0.0732324882035449,0.0236590437819686,0.00654932167415356
0.0166786311134646,0.0193352450318814,-0.00487504290532714
-0.0439685253798755,-0.0202994818517273,0.0369449936291305
0.0245741825931469,-0.0226497796330192,0.0245126609177634
-0.0150712051529239,0.0647521554386995,-0.0192687152396422
-0.00514317304392542,0.0075241957639286,0.059787529973762
-0.0400853847011027,0.0775049228910699,-0.0375851422414477
-0.0308911756752139,-0.0108465840492831,-0.0091529383730895
0.0228561229203925,0.0359049018634666,-0.0487805869338973
0.0504744739369125,0.0370019229803779,-0.0698181639672602
-0.0689022048459689,-0.0385910596756258,-0.00878678567624336
0.0478256940264701,-0.00182028338105722,-0.0270331334451931
0.0409021793893929,0.00165177618369233,0.054937993715138
0.0533771528835769,0.00685143726527337,-0.0127744268640675
0.0247981210820211,-0.0187912228404423,-0.0306368592426466
0.0239867353905523,-0.021653845148967,-0.0168551314813941
0.0151956814033798,-0.000548695317957634,0.0933833044652254
-0.0189063903411238,0.0130450458342976,-0.0352946265986456
-0.0423878042342192,-0.0163279238010684,-0.00631918917615863
-0.00412972615557356,-0.0349147804856398,0.019612136180995
-0.0326077113474745,-0.0129393655413173,0.0353164712396513
-0.0002186410291799,-0.0238248356707954,-0.00894303932576512
-0.023816635007329,0.0397970655062293,-0.00825979843616131
-0.0150275659890776,-0.00985877053308215,0.0634630858356868
0.0351303864433098,0.0572388203942693,-0.00554882934946571
-0.0587542043526171,-0.0197798936513039,0.00623252157295151
-0.0109395467435457,0.00713663673462628,-0.00704036223295323
-0.0182502543481248,-0.0385351020542092,0.0151000589830035
0.047099609311884,0.108461078745442,-0.00167234393037419
0.0527331844619084,0.0579329527968167,-0.00173708503115821
-0.0886491382232438,-0.00981595377225453,0.011623933970789
0.0410240628915745,0.0472064496394501,-0.0170758062548541
-0.0217395838424728,-0.0175483241079859,-0.0606414896982582
-0.0771110971733262,0.0289496027715021,-0.0101904537309427
-0.0502487583170583,0.0813563776232338,-0.00767797955701377
0.0337765969479855,-0.00525122181172732,-0.00261651256169237
-0.0201500151490631,0.0422433391032067,0.00544946075169717
-0.125451424644349,-0.00179039539760395,2.28923067973896e-05
-0.041275716570915,-0.0253786652119973,0.0159822150709356
0.0639801611670602,-0.0385815647086281,0.00194322930562241
0.015147883442416,-0.0370811144370097,0.00954885540487858
0.0159017458745055,-0.0282373046911542,0.0364547126668202
-0.0445148122725151,0.0319097852770343,-0.0599705480131846
-0.0343056794266126,-0.00996865743785402,0.0371694363894
-0.0848140136972527,-0.0138212819255261,-0.0137438738185494
-0.0127968208026903,0.0125548420003282,-0.000184913935397213
-0.026424915883696,-0.0375747045848689,0.0465861623005176
-0.0132126004249862,-0.00634427109015967,0.0639331589120097
-0.0209887698156118,0.00400733821054844,-0.0316135475436401
-0.0043076057452493,0.0285316832778226,-0.000514657604684582
0.0566690084226479,0.011531249663829,-0.0452955916679265
0.0314656387794731,-0.0213718509157935,-0.026453749763383
-0.0747993726613043,0.051353498624552,-0.0027325470709596
0.00579171763118784,-0.0535992987739264,-0.0042720850396164
0.0216191837140169,-0.00108994497885817,-0.0259892227437942
-0.00681700863893908,-0.0603559576282848,-0.00652344585945785
-0.0400068205565923,0.00600253473436491,-0.0058252234808141
0.0359860044887239,-0.0260716919170139,0.0195001288482274
-0.0827998012607069,0.009610260799364,-0.0449721456432055
0.0425755595184026,0.00204237388443107,-0.00327659656376361
-0.0150210055408569,0.0123938025170293,0.0865879194050259
0.0919870149197899,0.0599915912112439,0.0110691760655736
-0.0259949863176171,-0.0214502656299868,-0.0136639114927756
-0.00739902572370776,-0.00538410382366505,0.0357622297649148
0.0268494239809892,0.0434711092064103,0.00215250176904586
0.0102387598214776,-0.0176736065122868,0.011475428929472
0.03327513134931,-0.0171507775932768,-0.00346998065547577
0.0597568015962526,0.00870658288624693,-0.0200311905866879
0.0191448129259374,-0.0415433555198397,-0.0738760517207344
0.0081748904373905,0.00272606771092199,-0.064711627033101
0.0195155092894821,-0.00668857402956424,-0.0370779599384022
0.126740674094054,-0.0377281179362849,-0.000879738182964052
0.0383086846297033,0.0623722933463554,0.0293925960173705
-0.0305114898640454,-0.000576310882564046,0.000608349360185167
0.0555693127171904,-0.0578636655905259,-0.0559460667547813
0.0111846026041471,-0.00503116380148461,-0.0654691211962244
-0.0626683216647363,0.072331476471728,0.0592858959516772
0.0484340257479122,0.0241620152757907,0.0480174901974082
-0.0262023970433003,0.0462134414859854,0.0289519603141965
-0.0201675624163964,-0.0154070804345668,0.0274063768611218
0.098396081411917,-0.00619621810438264,0.0101877366617159
0.022682376983543,0.00496846313328148,0.0457100294480067
-0.0244506531069737,-0.0077303764510056,0.0201116943569229
0.009742745077012,-0.0424047048473471,-0.0901858117904145
-0.0387437445206524,0.0377940414206605,0.0166652666851516
-0.0251869256667658,-0.0185503810379296,0.059841165869656
-0.0153009592287995,0.0109234294849407,0.0589407678351166
-0.00910289134505338,0.0190307329471549,-0.0314475047717561
0.00632994346983007,-0.00543009311718756,0.0579249721643856
-0.0161159476850321,0.00294453500876135,-0.00612821399520558
-0.00620364147551905,-0.000731099477829122,0.0553057617460194
0.00354877473888526,-0.00689116227305488,-0.00409303470291189
0.00930355502408639,-0.0514037475842722,0.00689576838381623
0.0253032419402728,-0.00277777263399537,-0.00301428150337072
-0.0276222619706694,-0.00011187749880881,-0.0137939710320047
-0.0753276432056741,-0.0124261382483825,-0.0211611490864604
0.119723583573456,-0.0137593945052189,0.0120153362280965
0.00814337865389814,0.044212504123515,0.040094324756361
-0.00928209385527368,0.0747024387393914,0.00404675157005197
-0.00317044525507021,-0.0339766503502643,-0.0199721133736311
-0.0117653832548168,0.020912748194797,0.0313128390548211
-0.00408117506353456,0.0410364392908135,0.0427827243818271
0.0314358799974462,0.0065516922575255,-0.0279642721499573
0.0192673371432751,0.0085499795125,-0.0177332532843665
-0.00393269868090257,0.0333928529428563,0.00199213536495546
-0.0173666980512118,0.0130796355458175,-0.00967175464321268
-0.0660984153561265,-0.0011290372933801,0.0347373198864367
0.000218328349438746,-0.0539687267004912,-0.0384203074727999
-0.00985246634716097,0.029395429517219,-0.0195232333497857
-0.0301452431938265,0.0632707336716185,-0.0183820432677777
-0.0623741771061013,-0.0111321168029188,-0.0244958392532285
-0.03647045322081,0.0176732652423106,-0.0344835169925737
-0.0544144206033256,-0.0415588947222346,-0.00339978778921335
0.0141594662735703,0.0268738361892671,0.0312623419911026
0.0556889657561589,0.00935897011744213,0.0529995232263715
0.0480051255386434,-0.00480628245610208,0.0105834686632714
0.039017356865113,0.0263778486418039,0.00192553552188307
-0.0151967103678847,0.0181229097847376,0.000632162529760116
-0.030532450364177,0.0300342429893602,-0.0501168468253321
0.0129714973685581,-0.00242541248383335,-0.0264406847220337
0.0254868221142248,0.00330134172288488,0.0130326087815464
0.0474927895672417,-0.00194073431026876,-0.00207586836462109
-0.0818430572366231,0.0465522888934042,0.099234714249452
-0.050281327831613,0.0529970708302482,-0.0097643303124622
0.0276089865752993,-0.0168606324653654,-0.00108596238683142
0.0573188579070742,-0.0234414466703788,-0.00599879894564559
0.0695639928628169,0.00843618809293489,-0.00231757588628823
0.00206099553963512,0.0335724590247358,0.0132450102208626
-0.0159435220933017,0.00173159573855672,0.0409561808416363
-0.064423751505175,-0.016743486693176,-0.0173818534882024
0.0246701157394162,-0.00379722427820317,0.0115374948268089
0.0455461859366079,0.00286262419074515,-0.0644187081915393
0.0446710093008866,-0.0462997281518759,0.0282589287652408
0.109311062092412,-0.0129348199124913,-0.0646550956856097
-0.00294688558773848,0.0223573813437766,0.0803770086389944
-0.0687030703235432,-0.0210311864894818,0.0316678067504799
0.0171418382998941,0.0459103744543292,-0.00863951744816582
-0.00234809941383657,0.0299744731194436,0.0747865453371304
0.00847439706657852,-0.0501239061407275,0.0736683047266219
0.00449810260488082,-0.069235624903211,0.0539257869272575
-0.00659835408807979,-0.0927838023486207,-0.021089433015975
0.041144547482256,-0.0139900298510819,-0.022118147377561
0.00447958075342797,-0.0969332077788388,0.00750323130818525
0.00168636447381647,-0.0147566001762688,0.0153747405949969
0.0248564823858113,0.00610625921147645,-0.0106730080255195
0.0161404162851621,0.0490991208103304,-0.103221838669033
0.0440137745879111,0.00920066205333114,0.0527284232096475
-0.000512247654242182,-0.0330031470510319,0.00857978980240659
0.0233160900207285,-0.0680208252150056,0.0189792484295651
-0.0842174370624336,0.0343286659881417,-0.0205240938766041
-0.0567824043475255,0.0226450395443347,-0.126797432602355
0.0149407989910109,0.0397428267240864,-0.0264208022582451
0.0418159640944369,-0.0348972066425279,0.00837199139311154
-0.03105512658139,-0.00249810825498842,-0.0772189455115928
0.0324088552455152,-0.0383963497798193,0.0029890734073581
-0.0325963633473645,-0.0304223042220326,0.0114583602941353
0.0213004340720045,-0.012775073180685,0.00379195986169123
0.0365380103832408,0.0229055507772979,0.0251663005420834
-0.00550383536077212,-0.040109800700774,-0.051642474438083
0.0674716980735137,-0.00547458986532334,-0.027603134006722
0.0410105535495757,-0.0208882416184927,-0.00415090589536016
0.0454253124260673,-0.017967370355939,0.0668938038790255
-0.0263184594173617,-0.000526419321531524,0.0247926111097776
0.0229936877845544,0.101933625616903,0.00373156923082663
0.0260968083837045,-0.0658216605835348,0.0581016577381376
0.014679838360151,0.0592863660753435,0.0504086667633817
-0.0101272931492264,0.0183111255615461,-0.0355643782673591
0.0486899967080768,0.051755737101713,-0.02019794220726
0.016936641796371,-0.00877328354289611,-0.00299118377911245
-0.0263842593390213,0.016462344505607,-0.0301232759194287
-0.0107400261185928,-0.0265008042188399,-0.0316334159787104
-0.0345539873344874,-0.0150365134908739,0.065610297955364
0.112464963991534,-0.0411182170369799,0.00758068003243101
0.0453585237939186,0.00217974887936218,0.0391732689256081
0.00450161008053834,0.0111663363870611,0.0344489373236875
0.0691412139516416,-0.0294732288772685,-0.00937848828815935
-0.0502891230228529,0.0111180525883503,0.00216650829975362
0.0320037685356613,0.0167045539973382,-0.036699638144594
0.0407697487799766,-0.0526726538774975,-0.0283740363529445
0.0328967535263519,0.0240639222786994,0.0159626644173581
-0.00280698322675277,0.0372867385034925,-0.059455600524003
0.0631667212966451,0.00229441804090701,0.00811068436402629
-0.00988457632069861,-0.0180650082128319,0.0568035884712357
0.0851701723689046,0.0272011097703752,0.0126019949270232
-0.0318653134646959,0.0279854935039062,-0.0158509967899195
0.0126814927069591,-0.0237799190689751,-0.0330194186798986
0.00194423549128425,0.0605368799126588,0.042658620266473
-0.00566843629895566,-0.0411835541012353,-0.0664181228760222
-0.00157633556118775,-0.0184491492166077,-0.0451644982553778
-0.0280119636258117,0.00797116077231508,-0.0159386241562143
0.0601369193464644,-0.0135248545669641,0.0274613321141571
-0.0214192180348988,0.00550280028832706,-0.00863836254000694
0.0369238245838687,-0.106580229469442,0.0403006654512573
-0.00336642152326683,-0.0124915802189326,-0.0275541302113747
-0.0299184137056535,-0.0226215841358491,0.0292869997218486
0.0104896388939796,-0.0530352191879963,0.0413874362172168
-0.0545479032970342,-0.00789991076240582,-0.0402799192077124
-0.0490482202062416,0.0379514315173831,0.0324846678067893
-0.0462061496261846,0.0869570272748296,-0.00623496640186422
0.0560204608606257,-0.0497964514036806,0.000118184888109774
0.0130658327758718,-0.0102138803284019,0.0549996294663488
0.0318831991741266,0.0490555184450148,0.0255819612333268
0.0285662800029995,-0.0163695913328359,0.0135673749573865
0.0609919248974011,0.0771691808409349,0.0119602214049829
-0.00475221522742406,0.00458339973591504,-0.0319033823733894
0.039879161385437,0.0313170759845234,0.00568996391442445
0.00218443341974928,-0.0158862366842469,-0.0881223053328207
0.00556347767514209,-0.0358030883759693,0.0417530752209876
0.00729998438628282,-0.0381064180877848,0.0218566946944744
-0.00173942533900706,-0.0215958544459839,-0.033696143816646
0.028559213081039,-0.0268401155785521,-0.0767895496551008
0.00464223315069312,0.0579740988755267,-0.0481974442184592
0.0792162818594887,-0.000130402808262708,0.0270968103474409
-0.053128785513967,-0.0242222028525093,-0.0328992901581768
-0.00546320792849483,-0.0206899948472891,0.00121194705200933
-0.0612738162414265,0.0280921957594086,0.0060407260188079
-0.0090936445471127,0.0145520690934675,0.0264208620403647
-0.00666280705548911,0.0094153624755845,-0.0549898598821518
0.0188989274649128,-0.0444848089429242,-0.0695207487060064
-0.0107887722297835,0.0697529558941122,0.0120463949829954
-0.07035722736337,0.00447790403150339,0.0092112578110406
0.0595259094527342,-0.0100201959084374,-0.0493112603276933
-0.0362630888643449,0.0114227823937726,0.0361531694280135
0.0192007397655772,-0.0184782392534555,0.000523829153543848
0.0363992276306718,-0.00976454733021503,0.00967049493194005
0.0996055386996839,-0.0118375660546775,-0.00344934349099257
0.0145168635734396,0.0325459103942721,0.0215217793795786
0.0191380238138145,0.0620459869475136,0.0127516954828337
0.0098996864055656,-0.0100682421595117,-0.0101687164882353
-0.0219346445648047,-0.0148264648728115,-0.0434186132313401
0.0468304820501163,0.0103310566403262,-0.00435008655347008
-0.0798137927288388,-0.0389419494913203,0.0345700900426083
0.00445723348316862,0.0102670659358887,-0.0689540229935766
-0.0606708655622796,-0.0196546473991853,-0.0146981554913322
0.0141258993154096,-0.043045161587162,0.00581175047197247
-0.0328554077029088,-0.022838118123408,-0.0560893990297032
-0.0352489374786028,-0.0351449673466914,0.0045215053339952
0.0306441157508157,-0.0123279049833281,0.0033347073170249
-0.00116916726330666,-0.0111686312982402,0.045811649500788
-0.0823880588418019,0.00135570284698094,-0.0186784041202276
-0.0114154768685997,-0.0134916370735399,-0.0107750687127249
0.0314478980159385,0.00457523847369723,-0.0134118643585143
-0.00684815624790147,0.00622846597115567,-0.0730331746857914
-0.0185202992916036,0.0386350532018814,-0.00824079405389498
-0.0550940682509191,-0.00254007717723312,-0.0147035785871721
-0.0399789700494547,0.0857235714709059,-0.0493374985272091
-0.00825201414130339,-0.0304037118474146,-0.0239989412397079
-0.00423127710668847,0.00456694436497407,-0.0688509409467937
-0.00631731832972016,0.0710171013904662,0.0646065902959048
-0.0177847821379326,0.049334680613848,-0.055738955631038
-0.000128491369845163,-0.00387849517023564,0.0628960526921683
-0.0503810743521164,0.0268452694687228,0.00303161194820939
-0.0022410681186705,0.0293988468067429,0.0121617835523837
0.0417941510559721,0.0333537981953898,-0.0130420600742522
-0.0201229610659998,-0.0268042259814705,-0.0319424480524922
-0.0270012965662556,0.0356571351930029,0.00238988322633971
-0.0199449517381915,-0.0296717827288177,-0.0232385832132556
0.0517834888031545,-0.00342089537269785,-0.0131189742678434
-0.00525632602621864,-0.0432982303648015,-0.0345638881681101
0.0665081898201947,-0.0293165571495726,0.0213853708026303
0.0613516307557841,0.00764226237545138,0.00592319612409586
0.0656541225626218,-0.0493235469168266,5.54805277181297e-05
0.0125033043562586,0.0190739058967691,-0.0110109952227417
-0.0752592461582973,0.0164411094666633,0.0175992877146302
-0.018556183082069,0.00985650652083803,-0.0156312171986983
-0.0083193100376641,0.000750432808555246,-0.00754630141045465
0.000724318876566873,-0.0215375339749531,0.051475280470057
0.00479685321274215,-0.0516394148343726,0.000319507012802589
0.00929125083194621,0.00434151209699818,-0.00398142099665744
-0.00964088447406658,-0.0201849283254825,0.055824222362688
0.00758250408662876,-0.0299809861250978,0.00849809380021327
-0.00135775964220175,0.0324636033267831,0.0399875328837749
0.0139217603591711,0.0131531063115351,0.0390078585079414
-0.0757823614011873,-0.0782946578674569,0.0236902536659948
-0.0198560404440346,0.11880187925984,0.0249837048521121
0.0251777453400562,0.0101735660064117,0.0736929578265558
-0.0429127407893239,0.0269520168613125,-0.0693648377616537
0.0394998652583586,-0.0272045216213845,0.0179494556086107
-0.0346477786452718,0.0177766403309892,0.0344438358821139
0.00936851850311027,0.0266090784241049,-0.0312956741091506
0.0372605773190061,0.0258125364082726,-0.0243666980657183
0.00786455556666152,0.0157992010577335,-0.0166910626500079
0.0302491526517799,0.0321202484483169,-0.067668807071028
0.0463056269681268,-0.0578252554719346,0.0329661888932743
0.0195173348137876,-0.0512446155726315,0.0106598270336919
0.00469518491511667,0.0846744351874472,0.00530901633231284
-0.017540757466131,-0.00802025268102517,0.03691164252143
-0.00172828135967962,-0.022223936763679,0.0749310627401031
-0.0305898133004185,-0.0333854123522039,-0.0619752289452171
0.0664775805301887,0.0821281241791821,0.0411839538726394
0.0723790922771637,0.00517632224569742,0.00383781181436582
-0.0344697678997463,0.0314226941452806,-0.0317876024706083
0.0050878609762266,-0.0535678850735515,-0.0305707236751077
-0.0237588567769723,0.0318643897878851,0.0190456648557304
0.0395908393765954,-0.020007380549951,-0.0210513560147876
0.0176695378601751,-0.0192697800500149,-0.0270670170908196
0.0210556846089248,0.0132073379612652,0.0353508539652144
0.0180188127698751,-0.0128250434565721,0.0118846049177147
-0.033031252065074,0.03541594442312,-0.000584674894194004
0.0134202529715911,-0.0148713696822858,0.0502586653133882
0.0519845434217075,0.0346830371536573,0.0393340770322674
-0.054939811136522,0.00382798873680734,-0.00102988586306267
0.0396915530029492,-0.0362000063796342,0.021384633718571
-0.0498873578740632,0.00157569972952609,0.0645324891151455
0.0458580909122139,0.0219096698760861,-0.0535544056440952
0.0120141611467537,0.0232639525629971,-0.0107234503976413
0.0393052992701015,-0.0379731950251069,0.068591273959537
0.0275042412971663,-0.0173704649785511,0.0262207854483469
-0.0552708749402462,0.0897349248956827,0.00689460623717564
0.00297245921637967,-0.00273288388333703,-0.00992764394720064
-0.0306465122236759,-0.0691881427664579,0.0418953681789241
-0.0364966128782306,0.0223897823113007,-0.00328099825360001
-0.0442567517080544,-0.0837084254877422,-0.00315791958950395
0.0433186716091209,0.019112891358012,0.0303117161527914
-0.00923995525568261,-0.0106361807418252,-0.0571416508008572
-0.000935356557396405,0.00507665228606948,-0.0539020667748695
0.0167238663239972,0.0191920627273995,-0.00444320155472466
-0.0330699366792048,0.0278553649151472,-0.0400896892629103
-0.0289653820022488,-0.0018645897442609,0.00636663085076633
0.0350280190725248,0.0450142061021054,-0.0288066267519588
0.0779967655906763,-0.0400512418828251,0.0657917052329703
0.0220213761526691,0.105465652688431,-0.00571912486404036
0.00282589873241561,-0.0188280152189276,0.00315446108456863
0.0367290631150521,-0.0238171079867187,0.0135237419491641
-0.068583823893003,-0.0325378826106124,-0.0254613537953345
0.00567411446995569,0.066616468435022,0.0357860252690744
0.00255859037555517,-0.00327422933148824,-0.0521607916277145
0.0206421452152535,-0.0247255200858691,-0.0137215479018753
0.0364967161750338,0.021541924030565,0.00437069411956981
-0.0111163071385316,-0.0213861763532739,0.00567796893374339
-0.0584074113474188,0.0137786089417806,-0.0371036916625641
0.0313674625161754,-0.0207974528705287,-0.0467552437620845
-0.00105778790108859,0.00158838662412445,-0.0102622797896268
0.0205713930009618,-0.0438757923574236,-0.0358318545928128
-0.000241714317490385,-0.0649913664456799,0.0280334750812183
-0.0584879265479266,-0.0227568867777361,0.0459853206594312
0.0164403042688865,-0.00661342996310055,-0.0501901464154021
-0.0331197713820764,-0.0047155707947697,0.0381603387861125
0.0771112295557913,-0.0451442779163554,-0.034525080978132
0.0428309383320642,-0.0293602675492917,0.0257860585636322
0.00267099648009617,-0.0231647494573398,0.0138225869194343
-0.0424349942513229,0.0306754899688394,0.00782379922384813
-0.000708069457688976,0.0310257268773806,0.00592603709036776
-0.000453144863289179,0.0147909401557927,0.0361929110104184
-0.0167218588585702,0.0639914790108325,-0.0156458368032095
0.00518457581694687,0.039504136448146,0.0453072068887339
-0.0149151155960245,-0.0193496789824156,0.0370590089425236
0.0988997867591904,-0.0573040836616293,-0.00850044811691866
-0.0565429912937832,-0.0138329944005074,0.00175974189279149
-0.0161874444032245,-0.0555523531248707,0.0194391094480032
0.0263684058029138,-0.00144381926897091,-0.0419370085769967
0.02371493006353,0.0122420496127208,-0.0186755885478623
0.013483079251953,0.00971699250432703,-0.00428255094737651
-0.0266557292481985,0.00759667855484814,-0.0661716208613466
0.0143268398494609,-0.0332381830481542,-0.0544490608134155
-0.00633120781440466,-0.0052697284891271,-0.0363933051415369
0.0363182346193134,-0.0615679184422531,-0.0150895214082349
-0.00639165822020593,0.0412302729157583,-0.00648196581972876
-0.0244813804885212,-0.0429666684702895,-0.00602775918369569
-0.0352467792805339,0.00202175424180906,-0.0498199373062737
-0.0328338166803957,-0.0316437595547303,0.0319411388993367
-0.0116920150913963,0.0378194654705593,-0.0165304346204318
0.0147171133357936,0.0671648497895098,-0.0858683667779336
-0.0109790634759536,-0.000526675848852687,0.0344216730675849
-0.0400190321512641,-0.0440179270771472,0.0465776384388432
0.0318344848567777,0.00414181536797632,0.0194406655781748
-0.0152155913942673,-0.0274877660442781,-0.0429761068941802
0.0454376540908478,-0.0158476216318043,0.00837797080954694
-0.019036611134512,-0.0228471913411885,0.0243765310428743
-0.000782837499737937,-0.0395877180864412,-0.00562793975254822
0.0299298061048416,-0.0239852849417055,0.00477486964539564
0.0535641097518054,-0.00647769411808585,0.0823748317606124
0.00706914183258836,-0.00282916145427559,-0.0367534915727307
-0.0612346970996661,0.0334169745521184,-0.0546501702753608
0.00652526029550793,-0.032436931855599,0.0754589695559815
0.00188835499420736,0.0153133279394836,0.0316115970469424
-0.0184262524087064,-0.0435518415130658,-0.0228622777313986
0.0194455814193875,-0.0691708437064119,-0.0105675783448594
